%YAML:1.0
---
opencv_ml_svm:
   format: 3
   svmType: EPS_SVR
   kernel:
      type: RBF
      gamma: 5.0000000000000003e-02
   C: 1024.
   p: 1.0000000000000001e-01
   term_criteria: { epsilon:1.0000000000000000e-03 }
   var_count: 36
   sv_total: 774
   support_vectors:
      - [ -5.97555935e-01, -1.39442384e-01, -2.49112904e-01,
          4.35729742e-01, -7.69471049e-01, -1.13702476e-01,
          -2.72858143e-01, 3.86102557e-01, -7.46624291e-01,
          -2.00464189e-01, -1.87499940e-01, -6.77904487e-02,
          -5.93950391e-01, -5.81470609e-01, -1.87500000e-01,
          -6.22787476e-02, -5.90193391e-01, -5.92239380e-01,
          3.78418922e-01, 2.13951468e-01, 4.01574850e-01, 1.64288640e-01,
          -3.32301497e-01, 3.92629981e-01, 4.03468132e-01,
          5.94722033e-02, -2.93012440e-01, 2.26754189e-01,
          4.96886611e-01, -3.65840018e-01, -3.31132412e-02,
          -2.85737455e-01, 5.24875641e-01, -4.32341158e-01,
          -4.67160940e-02, -3.17992151e-01 ]
      - [ -7.51449883e-01, -4.71489668e-01, -5.17388225e-01,
          4.52400565e-01, -9.24875677e-01, -4.56025302e-01,
          -5.43556452e-01, 8.03558826e-02, -8.67808700e-01,
          -6.54508471e-01, -4.54687417e-01, 1.92940950e-01,
          -8.50726187e-01, -7.93629766e-01, -4.56250012e-01,
          1.78094268e-01, -8.46399486e-01, -8.03789556e-01,
          -5.01954556e-02, -1.31991088e-01, 1.68728828e-02,
          4.53818798e-01, -6.85710669e-01, 5.63471317e-02,
          6.58959150e-02, -2.04213083e-01, -4.87260878e-01,
          -4.07591999e-01, 1.33250237e-01, -6.99379444e-02,
          -4.70214307e-01, -5.55439115e-01, 1.56716347e-01,
          -2.68402874e-01, -4.39923286e-01, -6.08644128e-01 ]
      - [ -7.56006658e-01, -5.77993512e-01, -5.47196627e-01,
          3.88451338e-01, -9.53619361e-01, -5.97933412e-01,
          -5.79553604e-01, 1.11859322e-01, -9.09386635e-01,
          -7.18025684e-01, -4.51562464e-01, 2.51630068e-01,
          -9.05938506e-01, -8.50941420e-01, -4.53124940e-01,
          3.06160808e-01, -9.09709811e-01, -8.48268449e-01,
          -1.50299072e-03, -2.71080732e-01, -3.37451696e-03,
          4.12147164e-01, -7.47886777e-01, -1.52841151e-01,
          -6.82081580e-02, 1.69326305e-01, -6.84828579e-01,
          -3.69906008e-01, 1.45703554e-01, -2.39847898e-01,
          -5.75910628e-01, -7.30112314e-01, 1.36815906e-01,
          -1.35852635e-01, -6.09467983e-01, -7.08082259e-01 ]
      - [ -8.30778778e-01, -7.30379462e-01, -6.89141214e-01,
          3.08734655e-01, -9.87211287e-01, -7.53609061e-01,
          -6.80345535e-01, 3.19819927e-01, -9.85353291e-01,
          -8.01384211e-01, -5.48437476e-01, 4.95920300e-01,
          -9.76384759e-01, -9.02393043e-01, -5.54687440e-01,
          5.18024087e-01, -9.76644039e-01, -9.02455568e-01,
          -3.92846465e-01, -4.89412487e-01, -3.00337493e-01,
          3.26959014e-01, -8.38108301e-01, -4.47629869e-01,
          -3.50289047e-01, 4.34923887e-01, -8.67099106e-01,
          -4.84009445e-01, -1.98007464e-01, -4.89409566e-02,
          -7.43211389e-01, -8.19475114e-01, -2.03980088e-01,
          -6.73755407e-02, -7.45016456e-01, -8.18471551e-01 ]
      - [ -7.69055486e-01, -6.18591428e-01, -5.67068815e-01,
          3.67950559e-01, -9.63698566e-01, -6.45147204e-01,
          -5.66594601e-01, 1.96846962e-01, -9.44249332e-01,
          -7.53406584e-01, -4.40624952e-01, 3.65130544e-01,
          -9.36553895e-01, -8.65356505e-01, -4.43749964e-01,
          4.14383888e-01, -9.39273894e-01, -8.62746060e-01,
          -1.23234391e-02, -3.02398264e-01, 7.87401199e-03,
          5.18019676e-01, -8.03870857e-01, -1.71984017e-01,
          -6.35837913e-02, 1.88674450e-01, -7.15294480e-01,
          -4.09737945e-01, 1.40722275e-01, -1.72965348e-01,
          -6.22165442e-01, -7.44866610e-01, 1.21890545e-01,
          -7.61067271e-02, -6.49645686e-01, -7.23056436e-01 ]
      - [ -8.11309040e-01, -5.79038978e-01, -6.53655052e-01,
          2.66601801e-01, -9.21262622e-01, -5.57496607e-01,
          -6.84665203e-01, 7.94374943e-03, -8.66051912e-01,
          -6.84777021e-01, -6.04687452e-01, -2.71651149e-02,
          -8.41300607e-01, -8.57320845e-01, -6.17187500e-01,
          4.62102890e-03, -8.38529468e-01, -8.55950475e-01,
          -3.08686554e-01, -3.36190939e-01, -2.10348666e-01,
          2.58878827e-01, -7.18912780e-01, -2.54680097e-01,
          -2.50867128e-01, 7.55485296e-02, -6.54054523e-01,
          -4.10593688e-01, -6.10211492e-02, -4.06402111e-01,
          -5.34636855e-01, -7.71946073e-01, -8.45771432e-02,
          -4.07498062e-01, -5.38136482e-01, -7.62808263e-01 ]
      - [ -7.35915542e-01, -2.53773689e-01, -4.93257642e-01,
          3.85161281e-01, -8.00197840e-01, -1.76539660e-01,
          -5.16198695e-01, -9.33832526e-02, -6.54668391e-01,
          -4.08097148e-01, -4.39062417e-01, -8.20776224e-02,
          -6.59215450e-01, -6.70591354e-01, -4.42187488e-01,
          -1.38509095e-01, -6.36986017e-01, -6.88472390e-01,
          3.87736559e-02, 1.35442853e-01, 1.11361146e-01, 1.46885633e-01,
          -3.59397233e-01, 3.20133686e-01, 1.46820664e-01,
          -3.24057341e-01, -1.66410029e-01, -6.21851683e-02,
          2.32876658e-01, -2.17308640e-01, -1.65701330e-01,
          -3.35480988e-01, 2.38805890e-01, -2.92272389e-01,
          -1.56302094e-01, -3.54638338e-01 ]
      - [ -8.09030652e-01, -5.39053679e-01, -6.52235627e-01,
          1.16976976e-01, -8.91915023e-01, -6.04330182e-01,
          -6.65946722e-01, 2.68867135e-01, -9.00376499e-01,
          -5.75086951e-01, -6.01562500e-01, 1.66838288e-01,
          -8.61237407e-01, -8.16005170e-01, -6.10937476e-01,
          2.13618517e-01, -8.63878012e-01, -8.13410342e-01,
          -2.83438623e-01, -1.76465034e-01, -1.72103405e-01,
          5.87092638e-02, -5.73883832e-01, -2.12707877e-01,
          -1.63005888e-01, 2.20118999e-01, -5.95708787e-01,
          -1.34734631e-01, -9.58903432e-02, -1.78796947e-01,
          -4.49561238e-01, -6.01356864e-01, -1.06965184e-01,
          -1.71632826e-01, -4.62060034e-01, -5.96197605e-01 ]
      - [ -8.18144143e-01, -6.84016705e-01, -7.17530131e-01,
          4.44494486e-02, -9.30332303e-01, -7.36634851e-01,
          -7.17782557e-01, 1.44906521e-01, -9.44211185e-01,
          -7.60924101e-01, -6.90624952e-01, 3.37285995e-02,
          -8.94341350e-01, -8.99865270e-01, -6.92187488e-01,
          2.58617997e-01, -9.23155963e-01, -8.78362536e-01,
          -4.17493284e-01, -4.53735232e-01, -4.21822250e-01,
          1.94593430e-01, -7.56791651e-01, -4.00211453e-01,
          -3.36416245e-01, 1.08048320e-01, -7.48083353e-01,
          -5.48516154e-01, -2.65255272e-01, -1.92801178e-01,
          -6.65878654e-01, -8.07839990e-01, -2.96019852e-01,
          -1.27869248e-01, -6.81973219e-01, -7.87529349e-01 ]
      - [ -7.51449883e-01, -4.46877956e-01, -5.55713236e-01,
          2.72939205e-02, -8.13275516e-01, -5.25509000e-01,
          -5.69474459e-01, 3.63322616e-01, -8.62414539e-01,
          -4.29143012e-01, -4.39062417e-01, -2.35755742e-01,
          -7.50849009e-01, -8.24527740e-01, -4.40625012e-01,
          -4.60924506e-02, -7.81088114e-01, -8.05214524e-01,
          3.39643955e-02, -1.43103063e-01, 1.01237297e-02,
          -1.18883252e-02, -4.80522573e-01, -1.28819466e-01,
          -3.81503701e-02, 2.92940617e-01, -5.29328585e-01,
          8.81496668e-02, 2.97633886e-01, -8.98843527e-01,
          -2.59629488e-01, -7.41354942e-01, 2.51243830e-01,
          -6.81590796e-01, -3.20888698e-01, -6.83992565e-01 ]
      - [ -8.00745666e-01, -5.47454476e-01, -6.45138383e-01,
          1.70310855e-01, -9.12038326e-01, -6.13396049e-01,
          -6.54427648e-01, 1.36836648e-01, -8.72543931e-01,
          -6.11520648e-01, -5.95312476e-01, 1.96510911e-01,
          -8.68301332e-01, -8.14886272e-01, -6.06249928e-01,
          3.71325016e-02, -8.29524279e-01, -8.34729552e-01,
          -1.96272969e-01, -2.12897182e-01, -9.78627205e-02,
          -7.32473731e-02, -5.61367869e-01, -3.46313894e-01,
          -1.39884353e-01, 1.39487505e-01, -5.73199630e-01,
          -1.89729929e-01, -2.11706161e-02, -2.91248500e-01,
          -4.57477510e-01, -6.58225596e-01, -6.21890426e-02,
          -1.79520369e-01, -4.84609246e-01, -6.18657649e-01 ]
      - [ -6.46437407e-01, -2.82576203e-01, -3.30021322e-01,
          2.56448865e-01, -8.16340327e-01, -3.73782814e-01,
          -3.57811332e-01, 2.19053030e-01, -7.85990119e-01,
          -4.09804881e-01, -3.65624964e-01, 5.70372343e-02,
          -6.62667632e-01, -6.09823823e-01, -3.54687512e-01,
          5.20280600e-02, -6.70666039e-01, -6.37556612e-01,
          2.37751722e-01, 4.48246002e-02, 2.37345338e-01,
          -6.36093020e-02, -3.63519251e-01, 1.75126791e-02,
          2.55491376e-01, -1.90009117e-01, -3.13201249e-01,
          -1.16502404e-01, 2.75217891e-01, 1.31736636e-01,
          -2.96668410e-01, -2.52418518e-01, 3.20895553e-01,
          -2.91866422e-01, -2.11802185e-01, -4.02434707e-01 ]
      - [ -7.95360386e-01, -4.64225650e-01, -6.01135552e-01,
          4.52491164e-01, -9.15479541e-01, -3.92477751e-01,
          -6.32829309e-01, -1.38400376e-01, -7.75539279e-01,
          -6.32809579e-01, -5.57812512e-01, 1.59499645e-02,
          -7.93174088e-01, -7.87053823e-01, -5.60937464e-01,
          -4.02470231e-02, -7.72863626e-01, -7.98910141e-01,
          -1.00090206e-01, -7.18296766e-02, -5.96175790e-02,
          3.66864085e-01, -5.89139700e-01, 1.74452543e-01,
          -1.96532011e-02, -3.13422143e-01, -3.14955890e-01,
          -2.81157851e-01, 5.60398102e-02, -2.21251488e-01,
          -3.56385887e-01, -5.28312683e-01, 5.72139025e-02,
          -2.75477231e-01, -3.53472292e-01, -5.38779080e-01 ]
      - [ -8.03852558e-01, -5.60077310e-01, -6.38041139e-01,
          -3.68342996e-02, -8.67691159e-01, -6.71859026e-01,
          -6.54427648e-01, 3.56220126e-01, -9.23446655e-01,
          -5.74068308e-01, -6.20312452e-01, -4.55922484e-02,
          -8.16976368e-01, -8.37730527e-01, -6.25000000e-01,
          1.57512903e-01, -8.48734915e-01, -8.14604461e-01,
          -3.83829296e-01, -3.33596766e-01, -2.77840316e-01,
          -6.55543804e-03, -6.30420685e-01, -3.96442235e-01,
          -2.67051995e-01, 2.73972750e-01, -7.24807024e-01,
          -3.30820799e-01, -2.12951481e-01, -2.63663769e-01,
          -5.20848870e-01, -7.12720275e-01, -2.26368129e-01,
          -2.32076347e-01, -5.36275387e-01, -6.98915958e-01 ]
      - [ -7.30323076e-01, -1.57782316e-01, -3.62668574e-01,
          8.37614179e-01, -8.49678040e-01, 1.21071339e-01,
          -3.39092791e-01, -4.64269161e-01, -5.44795394e-01,
          -5.25070786e-01, -3.43749940e-01, -4.34187412e-01,
          -4.64896739e-01, -6.20769501e-01, -3.48437488e-01,
          -3.01995039e-01, -4.87570941e-01, -6.03720784e-01,
          -1.89660430e-01, 7.08419085e-02, 8.66141319e-02,
          6.23188853e-01, -5.86469829e-01, 5.60379148e-01,
          1.49132967e-01, -8.69919598e-01, -2.82315612e-02,
          -4.64265347e-01, 1.78082108e-01, -7.08329558e-01,
          -2.20751762e-03, -4.80149388e-01, 1.74129367e-01,
          -6.16432667e-01, -6.39300346e-02, -4.58555758e-01 ]
      - [ -7.61184752e-01, -5.29594123e-01, -5.62810481e-01,
          1.90864682e-01, -9.11934733e-01, -6.15689814e-01,
          -5.73794007e-01, 3.34281564e-01, -9.23075736e-01,
          -6.09738231e-01, -4.90624905e-01, 1.82352066e-01,
          -8.68353963e-01, -8.20554614e-01, -4.95312452e-01,
          2.06494570e-01, -8.68257761e-01, -8.22399616e-01,
          -8.14548135e-02, -2.35193729e-01, -5.51180840e-02,
          1.14514947e-01, -6.62093818e-01, -3.15040588e-01,
          -5.20231128e-02, 1.37854576e-01, -6.56857133e-01,
          -3.49381387e-01, 8.71729851e-03, -6.60536885e-02,
          -5.43562233e-01, -6.30089402e-01, -9.95022058e-03,
          -1.37825906e-01, -5.29538035e-01, -6.38942480e-01 ]
      - [ -7.95774639e-01, -4.77428913e-01, -6.29524469e-01,
          5.78501225e-02, -8.45474482e-01, -5.54202437e-01,
          -6.40028775e-01, 2.02629805e-01, -8.51960897e-01,
          -5.18712342e-01, -5.85937500e-01, 3.73691320e-02,
          -7.98189342e-01, -7.85572529e-01, -5.95312476e-01,
          1.03295088e-01, -8.03743601e-01, -7.79769301e-01,
          -2.18515217e-01, -1.17768764e-01, -9.56130028e-02,
          2.51657963e-02, -5.35338402e-01, -1.83111489e-01,
          -9.82660055e-02, 1.52639866e-01, -5.31835437e-01,
          -9.59798694e-02, -4.35865521e-02, -1.52526617e-01,
          -4.02695179e-01, -5.40705919e-01, -4.97512817e-02,
          -1.37714863e-01, -4.14659739e-01, -5.30860186e-01 ]
      - [ -6.66942835e-01, -2.54925728e-01, -3.25762928e-01,
          9.31068778e-01, -9.08010006e-01, -7.00271130e-03,
          -3.14614832e-01, -5.26570737e-01, -6.09568357e-01,
          -6.42442346e-01, -2.54687488e-01, -7.13165879e-01,
          -5.30165076e-01, -7.79379129e-01, -2.57812440e-01,
          -4.19271290e-01, -5.81882715e-01, -7.36962140e-01,
          1.79440856e-01, -6.75199628e-02, 2.53093362e-01,
          8.68084550e-01, -7.63803422e-01, 3.87098789e-01,
          2.83236861e-01, -6.32056952e-01, -3.16629589e-01,
          -5.47244787e-01, 4.29638743e-01, -8.97222519e-01,
          -2.20483184e-01, -7.05732763e-01, 4.25372958e-01,
          -8.32538247e-01, -2.51320302e-01, -6.82827353e-01 ]
      - [ -8.30157399e-01, -7.02668309e-01, -7.04755187e-01,
          1.30939364e-01, -9.65747237e-01, -7.77984142e-01,
          -7.35061169e-01, 3.65431070e-01, -9.77528453e-01,
          -7.24858046e-01, -6.21874928e-01, 3.67594957e-01,
          -9.57308650e-01, -8.94636273e-01, -6.32812500e-01,
          3.94242167e-01, -9.57403004e-01, -8.93857896e-01,
          -4.15689826e-01, -3.96433175e-01, -3.49831164e-01,
          4.13793325e-02, -7.03789473e-01, -4.75560963e-01,
          -3.91907513e-01, 3.90916586e-01, -7.77586699e-01,
          -3.00066054e-01, -2.75217950e-01, -2.11683631e-01,
          -6.19384170e-01, -7.77332127e-01, -2.83582091e-01,
          -1.62129939e-01, -6.42609298e-01, -7.65671611e-01 ]
      - [ -8.39270949e-01, -8.42031360e-01, -7.31724620e-01,
          1.31289244e-01, -9.95796680e-01, -8.90482008e-01,
          -7.49460042e-01, 1.90351605e-01, -9.94647205e-01,
          -8.94988775e-01, -6.73437476e-01, 4.80333567e-01,
          -9.91700113e-01, -9.39254344e-01, -6.81249976e-01,
          5.00651836e-01, -9.91777480e-01, -9.39390898e-01,
          -3.24316263e-01, -5.95337152e-01, -2.75590479e-01,
          4.29415464e-01, -9.36997890e-01, -6.29172564e-01,
          -2.87861288e-01, 4.47833896e-01, -9.30179894e-01,
          -6.58259630e-01, -1.70610249e-01, 3.59008670e-01,
          -8.92894506e-01, -8.40708315e-01, -1.74129426e-01,
          3.26935172e-01, -8.91071498e-01, -8.43931675e-01 ]
      - [ -8.02609801e-01, -5.89201093e-01, -6.45138383e-01,
          -8.45165849e-02, -8.67098451e-01, -7.03755140e-01,
          -6.42908573e-01, 6.18834615e-01, -9.73069489e-01,
          -5.59258342e-01, -5.46875000e-01, 4.61914539e-02,
          -8.72139037e-01, -8.68110538e-01, -5.48437476e-01,
          1.67176843e-01, -8.85582745e-01, -8.57626796e-01,
          -1.71025038e-01, -2.80676246e-01, -1.20359898e-01,
          -5.72049022e-02, -5.67356586e-01, -3.39260876e-01,
          -1.74566567e-01, 4.87450838e-01, -7.15797365e-01,
          -6.05849624e-02, 9.83810425e-02, -6.82403326e-01,
          -4.28300798e-01, -7.86850393e-01, 7.96018839e-02,
          -4.53529179e-01, -5.01061022e-01, -7.41474509e-01 ]
      - [ -8.12551796e-01, -6.67026877e-01, -6.16749525e-01,
          1.57106519e-01, -9.62257922e-01, -7.67985165e-01,
          -6.70266390e-01, 5.84338307e-01, -9.90526736e-01,
          -6.73291087e-01, -5.29687524e-01, 5.30365467e-01,
          -9.63233590e-01, -8.64573479e-01, -5.35937548e-01,
          5.32484412e-01, -9.62083519e-01, -8.67233336e-01,
          -2.31740355e-01, -2.81199992e-01, -1.96850419e-01,
          2.54415274e-02, -6.17173254e-01, -3.33430707e-01,
          -2.06936479e-01, 7.06565142e-01, -8.11554849e-01,
          -2.95510292e-02, -2.61518955e-02, -1.11737788e-01,
          -5.91859818e-01, -6.98298395e-01, -2.23881602e-02,
          -2.26745903e-01, -5.75341702e-01, -7.19477355e-01 ]
      - [ -8.37613940e-01, -8.13829064e-01, -7.44499683e-01,
          2.35361934e-01, -9.97099996e-01, -8.44651639e-01,
          -7.22102165e-01, 2.06410646e-01, -9.93061602e-01,
          -8.84314716e-01, -6.40625000e-01, 5.46434999e-01,
          -9.91789103e-01, -9.26592231e-01, -6.48437500e-01,
          5.52073002e-01, -9.91277039e-01, -9.27839994e-01,
          -3.70003045e-01, -5.37773490e-01, -2.93588281e-01,
          5.44216990e-01, -9.28189039e-01, -4.81441319e-01,
          -3.22543323e-01, 2.74999380e-01, -8.74237180e-01,
          -6.53266728e-01, -2.12951481e-01, 2.68959761e-01,
          -8.49220455e-01, -8.16495061e-01, -2.18905568e-01,
          2.21071005e-01, -8.47553611e-01, -8.25150728e-01 ]
      - [ -7.59527743e-01, -4.51951683e-01, -5.67068815e-01,
          1.38841867e-02, -8.10477555e-01, -5.29560208e-01,
          -5.80993533e-01, 3.75988007e-01, -8.68177652e-01,
          -4.29959536e-01, -4.51562464e-01, -2.30455399e-01,
          -7.54351199e-01, -8.26839924e-01, -4.54687536e-01,
          -4.36534286e-02, -7.84011602e-01, -8.07973087e-01,
          5.10966778e-03, -1.46428764e-01, 1.12485886e-03,
          -3.63026857e-02, -4.65881109e-01, -1.34057641e-01,
          -5.20231128e-02, 2.78150320e-01, -5.22869468e-01,
          8.24661255e-02, 2.82689810e-01, -9.13267553e-01,
          -2.56476283e-01, -7.45868921e-01, 2.36318350e-01,
          -6.89965606e-01, -3.19059551e-01, -6.87031269e-01 ]
      - [ -5.50331414e-01, -8.71763229e-02, -1.65365517e-01,
          4.84445810e-01, -7.61842370e-01, -6.36519790e-02,
          -1.82145476e-01, 4.54751253e-01, -7.41577268e-01,
          -1.42901957e-01, -1.26562476e-01, -5.58068752e-02,
          -5.50679088e-01, -5.24050951e-01, -1.32812440e-01,
          -4.64901328e-02, -5.47124386e-01, -5.34006715e-01,
          4.33724046e-01, 2.52801895e-01, 4.39820051e-01, 1.39711618e-01,
          -2.87002325e-01, 4.44679141e-01, 4.58959460e-01,
          1.10820532e-02, -2.44230211e-01, 2.51331568e-01,
          5.49190402e-01, -3.84759784e-01, 1.74971819e-02,
          -2.47391701e-01, 5.72139144e-01, -4.42805171e-01,
          2.62653828e-03, -2.76491165e-01 ]
      - [ -8.38028193e-01, -4.97904956e-01, -6.73527300e-01,
          7.91657448e-01, -9.69720721e-01, -2.26570666e-01,
          -6.87544942e-01, -7.00056016e-01, -6.41064107e-01,
          -8.20390940e-01, -6.54687464e-01, -4.08040226e-01,
          -6.95034027e-01, -8.50242019e-01, -6.64062500e-01,
          -4.23824549e-01, -6.78329945e-01, -8.59142005e-01,
          -4.14487541e-01, -2.58698225e-01, -2.01349795e-01,
          8.65715384e-01, -8.60821903e-01, 1.75550938e-01,
          -1.95375800e-01, -8.30271363e-01, -2.85812259e-01,
          -7.42358804e-01, -1.28268957e-01, -6.41483665e-01,
          -3.60506952e-01, -7.45309949e-01, -1.39303565e-01,
          -7.10289955e-01, -3.52757931e-01, -7.50963330e-01 ]
      - [ -8.47348809e-01, -8.26157451e-01, -8.09794188e-01,
          -1.41208768e-02, -9.72527027e-01, -8.63920987e-01,
          -8.08495283e-01, 1.42262578e-01, -9.87214744e-01,
          -8.73461485e-01, -7.92187452e-01, 2.21908092e-01,
          -9.65411663e-01, -9.40453291e-01, -7.73437500e-01,
          3.87941241e-01, -9.79423761e-01, -9.31219935e-01,
          -5.58761716e-01, -6.24706984e-01, -5.74803114e-01,
          2.39370704e-01, -8.72274816e-01, -5.95648408e-01,
          -5.35260201e-01, 1.75603747e-01, -8.67686450e-01,
          -7.13586807e-01, -4.81942773e-01, 1.06456995e-01,
          -8.42213869e-01, -8.67918015e-01, -4.97512460e-01,
          1.12361550e-01, -8.45891476e-01, -8.62318516e-01 ]
      - [ -7.81068742e-01, -4.89364743e-01, -5.98296642e-01,
          2.18062997e-01, -8.69647622e-01, -4.78635788e-01,
          -6.24190032e-01, 3.06208134e-02, -8.51515830e-01,
          -6.47874951e-01, -5.59374988e-01, -4.11769152e-02,
          -8.07081282e-01, -8.23128283e-01, -5.68749964e-01,
          -2.31788158e-02, -8.03170383e-01, -8.25547040e-01,
          -1.67418122e-01, -2.04198062e-01, -1.27109110e-01,
          3.49638462e-01, -6.53984427e-01, 6.50036335e-03,
          -1.00578129e-01, -2.72852361e-01, -4.43405688e-01,
          -4.27471220e-01, 3.86052132e-02, -4.74669397e-01,
          -4.11327958e-01, -6.97848439e-01, 3.23382616e-02,
          -5.35511434e-01, -4.07929361e-01, -7.05104589e-01 ]
      - [ -8.50869894e-01, -6.94439888e-01, -7.61533022e-01,
          1.27359033e-01, -9.54508483e-01, -7.31330216e-01,
          -7.91216671e-01, -7.86000490e-03, -9.00745034e-01,
          -7.49813318e-01, -7.34375000e-01, 1.82347655e-01,
          -9.14512396e-01, -8.80690753e-01, -7.53125012e-01,
          6.98212385e-02, -8.85723174e-01, -8.91250432e-01,
          -3.82025898e-01, -3.92019331e-01, -3.29583824e-01,
          -1.85972452e-03, -6.84483707e-01, -4.87914205e-01,
          -3.45664799e-01, 1.34111166e-01, -6.79288387e-01,
          -3.93903255e-01, -2.52802014e-01, -9.32066441e-02,
          -6.45543039e-01, -7.49936104e-01, -2.81094551e-01,
          -6.32167459e-02, -6.51187301e-01, -7.32557714e-01 ]
      - [ -6.82062984e-01, -3.10415149e-01, -4.12349164e-01,
          1.90994143e-01, -8.11558008e-01, -4.05981123e-01,
          -4.02447820e-01, 7.31471658e-01, -8.98369014e-01,
          -2.68799365e-01, -2.71874964e-01, 1.90147400e-01,
          -7.77607501e-01, -6.98327899e-01, -2.81250000e-01,
          1.36716008e-01, -7.64576554e-01, -7.15095282e-01,
          1.78238511e-01, 1.05952859e-01, 2.35095620e-01,
          -2.55802274e-02, -3.62273097e-01, 6.96249008e-02,
          1.93063617e-01, 3.83384585e-01, -4.63136137e-01,
          3.36614370e-01, 3.77335072e-01, -3.10259879e-01,
          -1.77690387e-01, -3.93917739e-01, 3.75621796e-01,
          -4.97602761e-01, -1.40522540e-01, -4.45371270e-01 ]
      - [ -8.56462300e-01, -7.67428994e-01, -7.98438609e-01,
          1.29626513e-01, -9.76885915e-01, -7.91788161e-01,
          -8.17134619e-01, 1.02330446e-01, -9.62548912e-01,
          -8.15470159e-01, -7.62499988e-01, 2.94997573e-01,
          -9.59333777e-01, -9.12737548e-01, -7.65625000e-01,
          2.99057484e-01, -9.57864165e-01, -9.16654825e-01,
          -5.98437071e-01, -5.35561383e-01, -5.52305937e-01,
          8.57285261e-02, -7.84124613e-01, -5.77505231e-01,
          -5.67630112e-01, 2.47550011e-02, -7.28140235e-01,
          -6.02546334e-01, -5.36737204e-01, 3.91838551e-02,
          -7.37511635e-01, -7.93678284e-01, -5.37313461e-01,
          -6.96677566e-02, -7.21428037e-01, -8.13394070e-01 ]
      - [ -8.53355408e-01, -7.07715392e-01, -7.78566360e-01,
          3.83450389e-01, -9.82001781e-01, -6.26468301e-01,
          -7.69618392e-01, -6.20634556e-02, -9.32990968e-01,
          -8.45893502e-01, -7.18750000e-01, 2.01229453e-01,
          -9.35546577e-01, -9.03992295e-01, -7.09374964e-01,
          2.92094946e-01, -9.44469869e-01, -8.99298370e-01,
          -5.40727437e-01, -4.26200926e-01, -4.21822250e-01,
          7.14576244e-01, -8.91243339e-01, -7.60530233e-02,
          -4.70520318e-01, -3.68540287e-01, -5.30057609e-01,
          -6.85844660e-01, -3.79825711e-01, -4.95329976e-01,
          -5.25332093e-01, -8.26919734e-01, -3.80596995e-01,
          -4.14312959e-01, -5.67164421e-01, -8.10901284e-01 ]
      - [ -8.06752324e-01, -5.83943903e-01, -6.01135552e-01,
          5.01669765e-01, -9.74970996e-01, -5.82415819e-01,
          -6.24190032e-01, 4.61520433e-01, -9.64230895e-01,
          -6.41999424e-01, -4.64062512e-01, 5.88889956e-01,
          -9.52933550e-01, -8.28137696e-01, -4.74999964e-01,
          5.90736747e-01, -9.50857520e-01, -8.28583241e-01,
          -3.01472843e-01, -1.77663207e-01, -1.49606228e-01,
          4.10464287e-01, -6.50204897e-01, 1.06985569e-01,
          -1.69942200e-01, 2.59569645e-01, -6.27325296e-01,
          -1.49732411e-01, -2.86426544e-02, -3.30675840e-01,
          -4.23711360e-01, -6.48212612e-01, -1.99004412e-02,
          -3.29448223e-01, -4.39680457e-01, -6.45693123e-01 ]
      - [ -8.38235259e-01, -7.41162419e-01, -7.07594037e-01,
          2.73174763e-01, -9.85123754e-01, -7.60330617e-01,
          -6.97624207e-01, 2.92843103e-01, -9.84933019e-01,
          -8.10171723e-01, -5.82812428e-01, 4.62462664e-01,
          -9.74997997e-01, -9.06124532e-01, -5.89062452e-01,
          4.84657884e-01, -9.75163519e-01, -9.06185150e-01,
          -4.13285315e-01, -5.04120886e-01, -3.31833541e-01,
          3.26954603e-01, -8.42102230e-01, -4.53987360e-01,
          -3.80346835e-01, 3.87203336e-01, -8.59899998e-01,
          -5.09983301e-01, -2.30386019e-01, -4.94223237e-02,
          -7.48643994e-01, -8.25679660e-01, -2.33830869e-01,
          -6.00892901e-02, -7.53228247e-01, -8.24435830e-01 ]
      - [ -8.17937016e-01, -7.31281281e-01, -6.46557808e-01,
          2.11981177e-01, -9.82953548e-01, -8.03188562e-01,
          -6.84665203e-01, 3.32902074e-01, -9.81568038e-01,
          -7.76611090e-01, -5.64062417e-01, 4.53067899e-01,
          -9.71217334e-01, -9.01223421e-01, -5.71874976e-01,
          4.57810640e-01, -9.70196545e-01, -9.03403401e-01,
          -2.60595143e-01, -4.33442116e-01, -2.55343020e-01,
          2.63566017e-01, -8.05195212e-01, -4.42224085e-01,
          -2.36994207e-01, 4.47118402e-01, -8.28728259e-01,
          -3.85044038e-01, -7.09837675e-02, -6.87390566e-03,
          -7.27900505e-01, -7.86221385e-01, -6.71641231e-02,
          -9.21632051e-02, -7.17622638e-01, -7.97811627e-01 ]
      - [ -8.30157399e-01, -7.14080036e-01, -7.07594037e-01,
          1.44822717e-01, -9.70533431e-01, -7.84148574e-01,
          -7.36501098e-01, 3.45394373e-01, -9.78642941e-01,
          -7.42155552e-01, -6.26562476e-01, 3.75642061e-01,
          -9.60549474e-01, -8.98124397e-01, -6.37499988e-01,
          4.01965022e-01, -9.60519850e-01, -8.97143841e-01,
          -4.13886487e-01, -4.09133375e-01, -3.52081001e-01,
          9.72194672e-02, -7.35225558e-01, -4.72845852e-01,
          -3.89595449e-01, 3.90742540e-01, -7.87353992e-01,
          -3.24333191e-01, -2.75217950e-01, -2.09831476e-01,
          -6.32414281e-01, -7.87380219e-01, -2.83582091e-01,
          -1.45026684e-01, -6.59637928e-01, -7.73845553e-01 ]
      - [ -8.25393558e-01, -7.39487410e-01, -6.63591146e-01,
          1.99782133e-01, -9.82844591e-01, -8.06211293e-01,
          -7.01943815e-01, 3.17206383e-01, -9.82091129e-01,
          -7.83585429e-01, -5.87499976e-01, 4.36479568e-01,
          -9.71365213e-01, -9.04761672e-01, -5.95312476e-01,
          4.40208435e-01, -9.70199823e-01, -9.07051563e-01,
          -3.16501379e-01, -4.53915894e-01, -3.07086527e-01,
          2.47220874e-01, -8.07100296e-01, -4.60408270e-01,
          -2.97109842e-01, 4.06874061e-01, -8.26559126e-01,
          -4.15262043e-01, -1.38231635e-01, -2.76924968e-02,
          -7.33357251e-01, -8.00875843e-01, -1.34328306e-01,
          -1.28878117e-01, -7.19430566e-01, -8.14168811e-01 ]
      - [ -8.60604823e-01, -6.59838676e-01, -7.55855203e-01,
          2.64789820e-01, -9.56939697e-01, -6.32429123e-01,
          -7.71058321e-01, -3.59324515e-01, -8.17276239e-01,
          -8.34016860e-01, -7.95312464e-01, 3.40347171e-01,
          -9.02082205e-01, -8.00769567e-01, -7.92187452e-01,
          -3.42500806e-01, -7.65927017e-01, -9.16210294e-01,
          -5.39525151e-01, -4.90558803e-01, -4.73565817e-01,
          1.92737818e-01, -7.95609117e-01, -4.82716620e-01,
          -4.86705244e-01, -4.51630056e-01, -5.28611064e-01,
          -7.55151808e-01, -4.96886671e-01, 2.06338167e-02,
          -6.76059067e-01, -7.40630388e-01, -4.62686598e-01,
          -3.24826539e-01, -6.13042593e-01, -8.18888724e-01 ]
      - [ -8.31400156e-01, -4.71329629e-01, -6.86302304e-01,
          6.20602369e-02, -8.02305758e-01, -4.48113024e-01,
          -7.03383684e-01, 1.56377554e-02, -7.71951973e-01,
          -5.01827300e-01, -6.25000000e-01, -2.56448150e-01,
          -7.08560705e-01, -8.05094242e-01, -6.29687548e-01,
          -3.53544533e-01, -6.76736355e-01, -8.28975439e-01,
          -3.66396189e-01, -2.14978099e-01, -1.99100077e-01,
          -5.18782139e-02, -4.97840047e-01, -2.17811942e-01,
          -2.53179193e-01, -1.17129147e-01, -4.35436785e-01,
          -2.63941586e-01, -1.48194313e-01, -5.04165649e-01,
          -3.10442150e-01, -6.49637341e-01, -1.44278586e-01,
          -6.74620986e-01, -2.84287333e-01, -6.89385891e-01 ]
      - [ -8.27257633e-01, -6.54702544e-01, -7.33144104e-01,
          5.43876886e-02, -9.13156509e-01, -6.85207248e-01,
          -7.40820706e-01, 1.26747608e-01, -9.31789041e-01,
          -7.37111568e-01, -6.74999952e-01, 9.56175327e-02,
          -8.97667289e-01, -8.85605574e-01, -6.84375048e-01,
          1.02903605e-01, -8.93567681e-01, -8.88343155e-01,
          -3.47760797e-01, -3.93028140e-01, -3.43082130e-01,
          2.20197082e-01, -7.27506638e-01, -3.11068833e-01,
          -3.57225478e-01, -6.04601502e-02, -6.40701056e-01,
          -5.32063007e-01, -2.57783234e-01, -2.70883203e-01,
          -5.95973551e-01, -7.80692995e-01, -2.63681531e-01,
          -3.31855834e-01, -5.90991020e-01, -7.87676752e-01 ]
      - [ -9.21499610e-01, -8.48466396e-01, -8.79347026e-01,
          -6.39517307e-02, -9.74406838e-01, -8.85031521e-01,
          -8.97768140e-01, -3.54399681e-02, -9.74628806e-01,
          -9.07163441e-01, -8.71874988e-01, 1.50179625e-01,
          -9.63315904e-01, -9.53637481e-01, -8.79687488e-01,
          1.90207124e-01, -9.64962602e-01, -9.53421056e-01,
          -7.45716870e-01, -7.22556949e-01, -7.00787365e-01,
          1.29015684e-01, -8.91875327e-01, -7.43804812e-01,
          -7.22543359e-01, 1.41738534e-01, -8.97834718e-01,
          -7.97137380e-01, -6.88667536e-01, 6.24693632e-02,
          -8.59631777e-01, -9.05981362e-01, -6.86567128e-01,
          2.18396187e-02, -8.60187769e-01, -9.10960078e-01 ]
      - [ -8.48177314e-01, -7.46231616e-01, -7.88502455e-01,
          8.99022818e-02, -9.57642555e-01, -7.59786308e-01,
          -7.89776802e-01, 3.60105038e-02, -9.48652804e-01,
          -8.23735595e-01, -7.49999940e-01, 1.48336530e-01,
          -9.35084224e-01, -9.17696476e-01, -7.48437464e-01,
          2.03239322e-01, -9.39994216e-01, -9.17432487e-01,
          -5.91223359e-01, -5.59346795e-01, -5.41057348e-01,
          4.02996063e-01, -8.86797607e-01, -4.48542178e-01,
          -5.49132943e-01, 5.85799217e-02, -7.70365834e-01,
          -6.39404535e-01, -4.74470794e-01, -1.23071492e-01,
          -7.36234963e-01, -8.52883935e-01, -5.04975140e-01,
          -1.58458352e-01, -7.27913976e-01, -8.49984765e-01 ]
      - [ -8.48591566e-01, -8.29208970e-01, -7.60113597e-01,
          1.10414147e-01, -9.90624130e-01, -8.68532956e-01,
          -7.59539247e-01, 1.52610898e-01, -9.89012361e-01,
          -8.84097517e-01, -7.09374964e-01, 4.19993162e-01,
          -9.84043896e-01, -9.30851519e-01, -7.21874952e-01,
          4.02348161e-01, -9.81509745e-01, -9.34493482e-01,
          -5.93627930e-01, -6.67872906e-01, -4.87064064e-01,
          4.21162009e-01, -9.54442143e-01, -6.64813697e-01,
          -5.07514477e-01, 3.42009068e-01, -9.27642167e-01,
          -7.14850664e-01, -4.96886671e-01, 3.76343369e-01,
          -8.97625566e-01, -8.35390151e-01, -5.02487540e-01,
          2.32081413e-01, -8.78873408e-01, -8.57772887e-01 ]
      - [ -8.77174854e-01, -4.90318716e-01, -6.77785635e-01,
          -2.19856799e-01, -7.78777421e-01, -6.52205944e-01,
          -6.99064076e-01, -1.97000265e-01, -7.75878251e-01,
          -6.73830390e-01, -6.85937524e-01, -2.86027610e-01,
          -6.80552781e-01, -7.97625482e-01, -6.92187488e-01,
          -2.94394672e-01, -6.69710577e-01, -8.09061825e-01,
          -6.83198094e-01, -4.35148478e-01, -4.96062994e-01,
          -1.09681964e-01, -6.54584646e-01, -5.67304492e-01,
          -5.12138724e-01, -1.56644225e-01, -6.36894166e-01,
          -6.36323214e-01, -5.09340048e-01, -1.62096381e-01,
          -5.75825274e-01, -7.38364756e-01, -5.12437820e-01,
          -2.20924199e-01, -5.76585948e-01, -7.52363443e-01 ]
      - [ -5.92584908e-01, -2.67247617e-01, -2.87437856e-01,
          -4.99704480e-02, -7.29815602e-01, -4.54239547e-01,
          -2.41180718e-01, -1.49021864e-01, -7.19829917e-01,
          -5.56706607e-01, -1.81249976e-01, -1.26305521e-01,
          -6.77921295e-01, -7.00513184e-01, -1.93749905e-01,
          -1.06476188e-01, -6.75809145e-01, -7.06257463e-01,
          1.11511707e-01, -2.20811069e-01, 1.68728828e-02,
          2.57429123e-01, -6.98554039e-01, -2.26973414e-01,
          8.43930244e-02, -5.14982343e-02, -6.14031613e-01,
          -4.57673371e-01, 2.32876658e-01, -1.47462487e-01,
          -5.60634851e-01, -6.75423861e-01, 2.06467628e-01,
          -2.02839851e-01, -5.53250790e-01, -6.81040764e-01 ]
      - [ -7.63048887e-01, -5.66806078e-01, -5.11710465e-01,
          5.59199929e-01, -9.80842590e-01, -6.01642370e-01,
          -5.21958232e-01, 5.98009586e-01, -9.79186177e-01,
          -6.46244168e-01, -2.79687464e-01, 7.21042752e-01,
          -9.65830505e-01, -8.28070700e-01, -2.85937428e-01,
          7.40495086e-01, -9.66417670e-01, -8.27769578e-01,
          4.59872484e-02, -1.48371100e-01, 9.33632851e-02,
          4.21051621e-01, -6.82114244e-01, 1.14456415e-02,
          7.97687769e-02, 6.23332977e-01, -7.50386715e-01,
          -1.60496235e-02, 2.75217891e-01, -6.53592348e-02,
          -5.32133579e-01, -6.10404253e-01, 2.83582091e-01,
          -8.17350745e-02, -5.40872693e-01, -6.15487397e-01 ]
      - [ -8.42377782e-01, -8.06739271e-01, -7.37402439e-01,
          9.57559347e-02, -9.85600650e-01, -8.59553754e-01,
          -7.48020172e-01, 1.21912599e-01, -9.81824636e-01,
          -8.73914301e-01, -7.18750000e-01, 3.53926301e-01,
          -9.72984731e-01, -9.23230946e-01, -7.31249928e-01,
          2.94345498e-01, -9.65750158e-01, -9.31502759e-01,
          -5.75593650e-01, -6.48000836e-01, -4.93813276e-01,
          3.04851294e-01, -9.20655191e-01, -6.65831268e-01,
          -4.93641675e-01, 2.64397860e-01, -9.00356054e-01,
          -7.11938381e-01, -5.04358709e-01, 2.98527718e-01,
          -8.61111581e-01, -8.18096876e-01, -5.09950280e-01,
          1.23656154e-01, -8.33780944e-01, -8.46158624e-01 ]
      - [ -7.27423370e-01, -4.15362418e-01, -5.21646559e-01,
          -5.02707958e-02, -7.77795851e-01, -5.25186539e-01,
          -5.03239751e-01, -1.41480744e-01, -7.64162242e-01,
          -6.18953884e-01, -4.42187488e-01, -8.29456449e-02,
          -7.54250169e-01, -7.76029348e-01, -4.48437512e-01,
          -7.12493062e-02, -7.51672268e-01, -7.83040166e-01,
          -1.31950736e-01, -3.00081670e-01, -1.56355441e-01,
          2.94859648e-01, -7.42483974e-01, -2.68768132e-01,
          -1.12138808e-01, -1.60648227e-02, -6.52117729e-01,
          -4.94309187e-01, -1.24531984e-03, -1.64466977e-01,
          -5.95590293e-01, -7.23017633e-01, -2.23881602e-02,
          -2.26262093e-01, -5.87244809e-01, -7.29704738e-01 ]
      - [ -7.35086977e-01, -3.77465129e-01, -4.57771420e-01,
          8.90282512e-01, -9.42527950e-01, -1.34775221e-01,
          -4.68682528e-01, -6.38206124e-01, -6.36777103e-01,
          -7.49009848e-01, -3.98437500e-01, -6.51054144e-01,
          -6.19573474e-01, -8.40553761e-01, -3.98437500e-01,
          -4.24234092e-01, -6.59851611e-01, -8.16728115e-01,
          1.19927883e-01, -1.33341193e-01, 1.94600701e-01,
          9.84912395e-01, -8.21957469e-01, 3.72139812e-01,
          2.20809102e-01, -6.33440852e-01, -3.56781602e-01,
          -5.99281073e-01, 3.99750948e-01, -9.40719068e-01,
          -2.77176440e-01, -7.60589838e-01, 3.85572195e-01,
          -8.50653410e-01, -3.12653005e-01, -7.34291494e-01 ]
      - [ -8.11723292e-01, -7.17233300e-01, -6.38041139e-01,
          3.10281754e-01, -9.84820247e-01, -7.55118132e-01,
          -6.27069771e-01, 2.93657541e-01, -9.82322454e-01,
          -8.12107027e-01, -5.15625000e-01, 5.17964602e-01,
          -9.74816322e-01, -8.94686997e-01, -5.28125048e-01,
          5.30549526e-01, -9.74100590e-01, -8.94564748e-01,
          -1.93868399e-01, -4.17065084e-01, -1.58605158e-01,
          4.59451914e-01, -8.46110582e-01, -3.37731898e-01,
          -2.20809281e-01, 2.81076670e-01, -7.98828661e-01,
          -4.85598564e-01, -1.86799765e-02, -1.92830563e-02,
          -7.26753116e-01, -7.88369656e-01, -1.99004412e-02,
          1.38289928e-02, -7.41589785e-01, -7.82275558e-01 ]
      - [ -8.70753944e-01, -6.95665240e-01, -7.99858093e-01,
          2.40635037e-01, -9.64367867e-01, -6.58335447e-01,
          -8.14254820e-01, -3.54143739e-01, -8.26918483e-01,
          -8.47432673e-01, -8.14062476e-01, 2.25518584e-01,
          -9.06594932e-01, -8.53244543e-01, -8.15625012e-01,
          -2.19555318e-01, -8.18837166e-01, -9.22162414e-01,
          -5.84610820e-01, -5.31726122e-01, -5.34308195e-01,
          2.22234368e-01, -8.27841997e-01, -5.14601111e-01,
          -5.46820879e-01, -4.04919207e-01, -5.61545968e-01,
          -7.67011940e-01, -5.54171860e-01, 5.59163094e-03,
          -7.01787353e-01, -7.75692344e-01, -5.39801002e-01,
          -2.83231616e-01, -6.46476328e-01, -8.35853517e-01 ]
      - [ -7.41300702e-01, -2.86431730e-01, -4.49254811e-01,
          7.83197522e-01, -8.98319483e-01, -6.85726404e-02,
          -4.25485909e-01, -5.29726624e-01, -6.11605763e-01,
          -6.55523419e-01, -4.20312524e-01, -3.50574374e-01,
          -5.84789693e-01, -7.06261396e-01, -4.35937464e-01,
          -3.76292109e-01, -5.67659974e-01, -7.21268475e-01,
          -1.69221580e-01, -9.35393572e-02, 5.62441349e-03,
          6.52287126e-01, -7.16876149e-01, 2.62727618e-01,
          5.89594841e-02, -8.14294934e-01, -2.26309538e-01,
          -6.28730536e-01, 1.18306279e-01, -5.66051781e-01,
          -2.51890063e-01, -6.08557940e-01, 9.45273638e-02,
          -6.50047421e-01, -2.41549730e-01, -6.22933447e-01 ]
      - [ -8.33678544e-01, -6.28962636e-01, -6.96238458e-01,
          4.83032465e-01, -9.80418980e-01, -5.81389785e-01,
          -7.03383684e-01, 4.09054756e-02, -9.14379120e-01,
          -7.57337034e-01, -6.20312452e-01, 3.31769347e-01,
          -9.27707672e-01, -8.55379283e-01, -6.34374976e-01,
          3.11689734e-01, -9.20843661e-01, -8.59246552e-01,
          -2.85241961e-01, -2.52581954e-01, -2.19347596e-01,
          5.45004368e-01, -7.74007261e-01, -8.03989172e-03,
          -1.93063557e-01, -2.18890786e-01, -4.84135687e-01,
          -4.41262662e-01, -1.38231635e-01, -2.08261132e-01,
          -5.06638646e-01, -6.69988513e-01, -1.36815846e-01,
          -3.11056733e-01, -4.88238633e-01, -6.86519742e-01 ]
      - [ -8.75517845e-01, -6.83252215e-01, -7.65791297e-01,
          3.28232050e-01, -9.73797858e-01, -6.40972018e-01,
          -7.62418985e-01, 2.15556622e-02, -9.35637474e-01,
          -8.06622088e-01, -7.17187464e-01, 1.90812826e-01,
          -9.22946811e-01, -8.89674604e-01, -7.23437428e-01,
          2.94139981e-01, -9.33384657e-01, -8.81361961e-01,
          -5.93026817e-01, -4.62202013e-01, -4.69066381e-01,
          4.95014310e-01, -8.57668400e-01, -2.57949769e-01,
          -4.65896010e-01, -1.64388537e-01, -6.59456968e-01,
          -6.67522907e-01, -4.49564159e-01, -2.31914997e-01,
          -6.05320215e-01, -7.88167536e-01, -4.67661679e-01,
          -7.91698098e-02, -6.53228641e-01, -7.51458883e-01 ]
      - [ -7.98053026e-01, -4.22122836e-01, -5.84102273e-01,
          6.21260405e-02, -8.20483565e-01, -5.06672204e-01,
          -6.01151943e-01, -8.35031271e-03, -7.83975661e-01,
          -5.54070950e-01, -5.84374905e-01, -6.70915842e-03,
          -7.27907836e-01, -7.21795797e-01, -5.89062452e-01,
          -1.13783598e-01, -6.96680427e-01, -7.49719381e-01,
          -3.34535658e-01, -2.05446780e-01, -1.58605158e-01,
          -1.64874017e-01, -5.20067811e-01, -3.86242270e-01,
          -1.44508719e-01, -2.44060874e-01, -4.53462481e-01,
          -4.17697668e-01, -1.45703673e-01, -8.95907879e-02,
          -4.45290804e-01, -5.53250968e-01, -1.51741326e-01,
          -2.41949677e-01, -4.17863548e-01, -5.93488216e-01 ]
      - [ -6.89519465e-01, -3.37676167e-01, -4.18026924e-01,
          1.21474624e-01, -8.19623590e-01, -4.79943514e-01,
          -4.32685316e-01, 2.92589903e-01, -8.38370681e-01,
          -4.56281006e-01, -4.24999952e-01, -2.80032754e-02,
          -6.97367787e-01, -6.90119147e-01, -4.28124964e-01,
          -4.13483977e-02, -6.88361228e-01, -7.01383770e-01,
          5.13975620e-02, -1.16996348e-01, 7.31158257e-02,
          -2.78988481e-02, -5.48555732e-01, -2.66712189e-01,
          1.05202198e-01, -5.17904758e-03, -5.54242015e-01,
          -3.12613904e-01, 1.20796919e-01, -5.35377860e-02,
          -4.41023409e-01, -5.18186331e-01, 1.16915464e-01,
          -1.08151913e-01, -4.37309623e-01, -5.30729830e-01 ]
      - [ -7.23902225e-01, -4.01484311e-01, -4.86160457e-01,
          2.04652429e-01, -8.50817621e-01, -4.70466375e-01,
          -5.06119490e-01, 2.27936268e-01, -8.44221890e-01,
          -5.06785572e-01, -4.37499940e-01, 1.44566417e-01,
          -7.87563443e-01, -7.29002595e-01, -4.28124964e-01,
          1.04516268e-01, -7.84076095e-01, -7.53003240e-01,
          1.12112999e-01, -4.71862555e-02, 1.18110180e-01,
          5.17601967e-02, -4.77589667e-01, -4.05586958e-02,
          1.09826565e-01, -4.89041805e-02, -4.37549651e-01,
          -1.63864791e-01, 1.50684953e-01, 1.39500260e-01,
          -4.02125359e-01, -3.66903305e-01, 2.06467628e-01,
          -3.09552670e-01, -3.11969638e-01, -5.10111570e-01 ]
      - [ -8.18972647e-01, -7.89595008e-01, -6.86302304e-01,
          1.20785713e-01, -9.84932780e-01, -8.52846265e-01,
          -7.06263483e-01, 2.26737380e-01, -9.87106979e-01,
          -8.50978374e-01, -6.12499952e-01, 3.99923086e-01,
          -9.78859365e-01, -9.28160131e-01, -6.15625024e-01,
          4.30781841e-01, -9.79442298e-01, -9.27635014e-01,
          -3.63390446e-01, -5.53730607e-01, -3.40832412e-01,
          3.80505681e-01, -8.98771167e-01, -5.49094677e-01,
          -3.17919075e-01, 3.89836669e-01, -8.95503223e-01,
          -6.06883049e-01, -1.93026185e-01, 8.42038393e-02,
          -8.24049473e-01, -8.51367354e-01, -1.84079647e-01,
          1.05646133e-01, -8.35724473e-01, -8.49328995e-01 ]
      - [ -8.03438306e-01, -4.77997303e-01, -6.38041139e-01,
          2.78559923e-02, -8.43089581e-01, -5.72671056e-01,
          -6.52987719e-01, 2.10353494e-01, -8.49341571e-01,
          -5.03584027e-01, -6.07812524e-01, -3.98756266e-02,
          -7.83628643e-01, -7.98921704e-01, -6.12499952e-01,
          1.97480917e-02, -7.89239109e-01, -7.96204209e-01,
          -3.20709407e-01, -1.76403642e-01, -1.45106852e-01,
          -1.11058712e-01, -5.19740582e-01, -3.23376358e-01,
          -2.11560726e-01, 1.96838975e-01, -5.67442894e-01,
          -1.06384099e-01, -1.00871742e-01, -2.53478289e-01,
          -4.18506801e-01, -6.11301839e-01, -1.16915464e-01,
          -2.11557627e-01, -4.42769945e-01, -5.98677993e-01 ]
      - [ -7.91425049e-01, -5.70731938e-01, -6.13910556e-01,
          3.39275837e-01, -9.40984190e-01, -5.72076559e-01,
          -6.27069771e-01, 1.31708980e-01, -9.13427174e-01,
          -7.09331274e-01, -5.40624976e-01, 2.48349309e-01,
          -8.98561478e-01, -8.40090394e-01, -5.40624976e-01,
          2.51575112e-01, -8.97549391e-01, -8.46781135e-01,
          -2.05290139e-01, -2.33020186e-01, -1.45106852e-01,
          4.27160501e-01, -7.28045106e-01, -6.40677214e-02,
          -1.14450872e-01, -1.47250295e-01, -5.48537850e-01,
          -4.56944168e-01, -2.61518955e-02, -1.03356779e-01,
          -5.40650666e-01, -6.46274507e-01, -2.73631811e-02,
          -2.55891919e-01, -5.15252233e-01, -6.79154277e-01 ]
      - [ -7.03189731e-01, -2.77496815e-01, -4.23704743e-01,
          8.68114233e-02, -7.63024509e-01, -3.92845929e-01,
          -4.19726372e-01, 1.66043520e-01, -7.50403047e-01,
          -3.73317778e-01, -3.87499928e-01, -1.44799232e-01,
          -6.31599844e-01, -6.65084541e-01, -4.17187452e-01,
          -6.41708374e-02, -6.25751138e-01, -6.41422749e-01,
          -6.46228194e-02, -2.40876675e-02, 1.40607476e-01,
          -3.01237762e-01, -3.45172346e-01, -2.48662889e-01,
          9.36415195e-02, -3.10893059e-02, -3.89117420e-01,
          -6.24510050e-02, 1.98007464e-01, -3.37644756e-01,
          -2.55327702e-01, -4.89904284e-01, 9.70149040e-02,
          -1.03448272e-01, -2.93446302e-01, -3.85680258e-01 ]
      - [ -8.68475556e-01, -7.81859338e-01, -8.28247011e-01,
          1.86274886e-01, -9.85207021e-01, -7.75141001e-01,
          -8.25773954e-01, -8.61095190e-02, -9.42817330e-01,
          -8.72874677e-01, -7.82812476e-01, 2.77499437e-01,
          -9.60656881e-01, -9.19008732e-01, -8.03124964e-01,
          1.31823063e-01, -9.40093160e-01, -9.36626256e-01,
          -6.21280432e-01, -6.23502254e-01, -6.17547750e-01,
          2.75410414e-01, -8.93797874e-01, -6.03728056e-01,
          -6.23121381e-01, -2.17053592e-01, -6.96577430e-01,
          -7.83553541e-01, -6.23910308e-01, 8.09670687e-02,
          -7.96091855e-01, -8.36823583e-01, -6.16915405e-01,
          -1.78983569e-01, -7.48051524e-01, -8.81397665e-01 ]
      - [ -8.71168196e-01, -8.19125891e-01, -8.29666436e-01,
          1.50674582e-02, -9.78685617e-01, -8.61645579e-01,
          -8.51691842e-01, 7.34828711e-02, -9.73096967e-01,
          -8.54339004e-01, -8.51562440e-01, 2.42349386e-01,
          -9.59866345e-01, -9.25184250e-01, -8.56249988e-01,
          2.19311476e-01, -9.55175161e-01, -9.32736874e-01,
          -6.64562702e-01, -6.76525176e-01, -6.55793071e-01,
          4.00737524e-02, -8.57399166e-01, -7.61014342e-01,
          -6.76300645e-01, 1.40818357e-01, -8.53448033e-01,
          -7.13221490e-01, -6.73723578e-01, 9.62607861e-02,
          -8.20114136e-01, -8.56209755e-01, -6.71641827e-01,
          -9.20439363e-02, -7.81099975e-01, -8.81774366e-01 ]
      - [ -8.23115170e-01, -6.58062875e-01, -6.53655052e-01,
          4.01752830e-01, -9.80420172e-01, -6.65868640e-01,
          -6.73146129e-01, 3.82122755e-01, -9.74658906e-01,
          -7.21371889e-01, -5.40624976e-01, 5.53079724e-01,
          -9.65465009e-01, -8.62150908e-01, -5.50000012e-01,
          5.76302290e-01, -9.65584636e-01, -8.60755205e-01,
          -3.94649863e-01, -2.87706017e-01, -3.11586082e-01,
          3.47228050e-01, -6.84280992e-01, -4.19018269e-02,
          -3.41040432e-01, 2.20862031e-01, -6.59168720e-01,
          -2.53136635e-01, -1.73100889e-01, -3.52094293e-01,
          -5.02867103e-01, -7.33494699e-01, -1.66666687e-01,
          -3.01475823e-01, -5.35944700e-01, -7.24440515e-01 ]
      - [ -8.52319777e-01, -6.93283021e-01, -7.74308026e-01,
          3.43015075e-01, -9.70048368e-01, -6.06090069e-01,
          -7.65298724e-01, -6.08959198e-02, -9.26802814e-01,
          -8.33979845e-01, -7.23437428e-01, 1.43979669e-01,
          -9.20492113e-01, -9.00161982e-01, -7.14062452e-01,
          2.45924592e-01, -9.31908846e-01, -8.94377768e-01,
          -5.42530894e-01, -4.13407087e-01, -4.26321745e-01,
          7.04362273e-01, -8.80186558e-01, -4.59014773e-02,
          -4.70520318e-01, -4.06838834e-01, -5.00782132e-01,
          -6.86197281e-01, -3.84806991e-01, -5.22009313e-01,
          -5.01930475e-01, -8.22184563e-01, -3.80596995e-01,
          -4.44835842e-01, -5.45199275e-01, -8.06753755e-01 ]
      - [ -7.21002460e-01, -2.38627315e-01, -4.02413070e-01,
          5.01550436e-01, -8.17363620e-01, -1.30752027e-01,
          -4.02447820e-01, -2.40170181e-01, -6.34531319e-01,
          -4.91422355e-01, -3.35937440e-01, -3.45198691e-01,
          -5.80202162e-01, -6.93216503e-01, -3.46875012e-01,
          -2.86794424e-01, -5.82147956e-01, -6.90396130e-01,
          -1.42170191e-01, -5.40874600e-02, 1.46232843e-02,
          3.00391078e-01, -5.58404684e-01, 1.38768554e-01,
          5.20231724e-02, -4.13434863e-01, -2.82521307e-01,
          -3.33667815e-01, 1.48194313e-01, -4.79903162e-01,
          -2.58139014e-01, -5.69239378e-01, 1.39303446e-01,
          -5.72803736e-01, -2.41088331e-01, -5.83027840e-01 ]
      - [ -8.56048048e-01, -6.63370967e-01, -7.85663605e-01,
          -3.31335664e-02, -8.81092906e-01, -6.73340380e-01,
          -7.81137466e-01, 2.63430476e-01, -9.40073848e-01,
          -6.50793552e-01, -7.31249928e-01, 4.41110134e-03,
          -8.69120955e-01, -8.82212400e-01, -7.43749976e-01,
          -6.56425953e-02, -8.47738683e-01, -8.94025445e-01,
          -5.04057765e-01, -4.04742956e-01, -4.35320556e-01,
          1.05192184e-01, -6.55188560e-01, -3.05557728e-01,
          -4.49711025e-01, -6.77669048e-03, -5.91414332e-01,
          -4.02629972e-01, -3.05105925e-01, -5.84488809e-01,
          -4.53228951e-01, -8.04542303e-01, -3.10945332e-01,
          -7.19552100e-01, -4.31020737e-01, -8.24138820e-01 ]
      - [ -8.30571651e-01, -7.10975528e-01, -7.28885710e-01,
          7.48192072e-02, -9.51222479e-01, -7.66871989e-01,
          -7.43700504e-01, 5.08874655e-02, -9.38871026e-01,
          -7.99351513e-01, -7.20312476e-01, 2.11486936e-01,
          -9.26483870e-01, -8.88299882e-01, -7.25000024e-01,
          1.69687510e-01, -9.16618109e-01, -8.96692395e-01,
          -3.72407675e-01, -4.63412642e-01, -3.31833541e-01,
          1.92578316e-01, -8.04545999e-01, -5.12127399e-01,
          -3.31791878e-01, 7.18367100e-02, -7.48693407e-01,
          -5.83509088e-01, -3.00124526e-01, 1.05420589e-01,
          -7.34954119e-01, -7.54389465e-01, -2.91044831e-01,
          5.42243719e-02, -7.31632948e-01, -7.62916327e-01 ]
      - [ -7.35501230e-01, -3.80299628e-01, -4.60610390e-01,
          8.85011792e-01, -9.42548752e-01, -1.38794184e-01,
          -4.71562207e-01, -6.33155107e-01, -6.40530348e-01,
          -7.50547886e-01, -3.99999976e-01, -6.46110058e-01,
          -6.23234510e-01, -8.41922104e-01, -4.01562452e-01,
          -4.22673941e-01, -6.62441611e-01, -8.18616629e-01,
          1.24736905e-01, -1.33688450e-01, 1.99100137e-01,
          9.89315867e-01, -8.23195696e-01, 3.72831821e-01,
          2.25433469e-01, -6.33633375e-01, -3.56980324e-01,
          -5.99128485e-01, 4.02241588e-01, -9.47523236e-01,
          -2.75276303e-01, -7.61654437e-01, 3.93034935e-01,
          -8.55561256e-01, -3.11444581e-01, -7.34799862e-01 ]
      - [ -8.66197169e-01, -8.54754210e-01, -8.38183105e-01,
          1.69487000e-02, -9.88310397e-01, -8.91537428e-01,
          -8.57451379e-01, 1.01133585e-01, -9.87115562e-01,
          -8.83520365e-01, -8.32812428e-01, 2.94369102e-01,
          -9.78561759e-01, -9.43598509e-01, -8.40624988e-01,
          3.02565336e-01, -9.77610946e-01, -9.46182072e-01,
          -6.65163815e-01, -7.18069315e-01, -6.82789683e-01,
          8.91516209e-02, -8.94269764e-01, -7.86297917e-01,
          -7.01734185e-01, 1.73730969e-01, -8.86751652e-01,
          -7.48166800e-01, -6.96139514e-01, 1.22281075e-01,
          -8.55822682e-01, -8.82044792e-01, -6.99005008e-01,
          -3.08504105e-02, -8.25773656e-01, -8.99258614e-01 ]
      - [ -7.34879851e-01, -4.23412144e-01, -5.21646559e-01,
          4.47326899e-02, -8.24273050e-01, -5.37674546e-01,
          -5.42116642e-01, 3.66207480e-01, -8.65636826e-01,
          -4.41939354e-01, -4.46874917e-01, -2.32842565e-02,
          -7.79388905e-01, -7.82587647e-01, -4.48437512e-01,
          1.10286474e-02, -7.81596124e-01, -7.85685241e-01,
          9.04718637e-02, -6.55006170e-02, 7.98650980e-02,
          3.51250172e-03, -4.46651161e-01, -4.67674732e-02,
          8.90172720e-02, 2.24644780e-01, -5.33334255e-01,
          -1.35698318e-02, 2.17932701e-01, -3.08683515e-01,
          -3.42218518e-01, -5.51599860e-01, 2.48756170e-01,
          -4.07620668e-01, -3.40140164e-01, -5.80465317e-01 ]
      - [ -8.54598165e-01, -7.56816626e-01, -7.87083030e-01,
          1.58142328e-01, -9.78015661e-01, -7.80390084e-01,
          -8.04175615e-01, 1.12142324e-01, -9.61414397e-01,
          -8.09283316e-01, -7.49999940e-01, 3.07555676e-01,
          -9.58217502e-01, -9.07831788e-01, -7.54687488e-01,
          2.98759222e-01, -9.55420494e-01, -9.13179100e-01,
          -5.81605077e-01, -5.18914700e-01, -5.29808760e-01,
          9.92918015e-02, -7.80182660e-01, -5.55068731e-01,
          -5.39884448e-01, 1.39279366e-02, -7.16536045e-01,
          -5.92589080e-01, -5.14321327e-01, 2.59006023e-02,
          -7.21117556e-01, -7.82609463e-01, -5.12437820e-01,
          -1.00021482e-01, -7.02311873e-01, -8.07100415e-01 ]
      - [ -8.68889809e-01, -7.71978140e-01, -8.04116368e-01,
          -1.03681684e-02, -9.60701704e-01, -8.31391692e-01,
          -8.21454287e-01, 8.49157572e-02, -9.58991349e-01,
          -8.15390825e-01, -8.34375024e-01, 2.12101460e-01,
          -9.36122298e-01, -8.99581671e-01, -8.37499976e-01,
          1.53873682e-01, -9.26336408e-01, -9.14286196e-01,
          -6.54944420e-01, -6.32092476e-01, -6.10798597e-01,
          4.77337837e-03, -8.28131914e-01, -7.40631342e-01,
          -6.39306366e-01, 1.35991096e-01, -8.30132008e-01,
          -6.73857689e-01, -6.41345024e-01, 1.02160811e-01,
          -7.90874958e-01, -8.23579550e-01, -6.26865625e-01,
          -1.39079392e-01, -7.42937922e-01, -8.64515662e-01 ]
      - [ -7.41715014e-01, -4.61642921e-01, -5.11710465e-01,
          5.25114536e-02, -8.55776310e-01, -5.97066343e-01,
          -5.29157639e-01, -2.84673572e-02, -8.25512171e-01,
          -6.46311522e-01, -5.39062500e-01, 1.43602967e-01,
          -7.93382645e-01, -7.37002492e-01, -5.40624976e-01,
          5.47895432e-02, -7.71323144e-01, -7.59558618e-01,
          -1.56597555e-01, -2.83363342e-01, -1.15860522e-01,
          1.08213067e-01, -6.96494341e-01, -3.88545156e-01,
          -1.00578129e-01, -2.15260386e-02, -6.41729355e-01,
          -4.81898487e-01, -8.34370852e-02, 1.33247614e-01,
          -6.19720697e-01, -6.14081979e-01, -8.20896029e-02,
          8.45992565e-02, -6.15516841e-01, -6.23926520e-01 ]
      - [ -6.88483834e-01, -2.81238616e-01, -4.03832495e-01,
          3.84535909e-01, -8.28417659e-01, -2.74260581e-01,
          -3.89488816e-01, -1.40860379e-01, -7.16988981e-01,
          -5.45772135e-01, -3.78125012e-01, -2.20462263e-01,
          -6.37087464e-01, -7.02138245e-01, -3.93749952e-01,
          7.52897263e-02, -6.86162114e-01, -6.46268547e-01,
          -9.91892815e-03, -1.12368345e-01, 3.93700600e-02,
          4.48541880e-01, -6.79815292e-01, 6.08596802e-02,
          1.00577950e-01, -3.32827568e-01, -4.57435608e-01,
          -4.82639015e-01, 1.35740995e-01, -2.52036214e-01,
          -3.96997511e-01, -5.77053905e-01, 1.04477525e-01,
          -1.22998357e-01, -4.36408103e-01, -5.37776649e-01 ]
      - [ -8.11309040e-01, -5.56226015e-01, -6.60752296e-01,
          7.23222494e-02, -8.90390813e-01, -6.34255290e-01,
          -6.57307386e-01, 3.83553863e-01, -9.32573259e-01,
          -5.79611659e-01, -5.95312476e-01, 2.13146925e-01,
          -8.79599273e-01, -8.24437857e-01, -6.01562500e-01,
          2.60500669e-01, -8.82978499e-01, -8.22516441e-01,
          -2.76224852e-01, -1.91021264e-01, -1.72103405e-01,
          6.47056103e-02, -5.87031484e-01, -2.29797959e-01,
          -1.58381522e-01, 2.65397787e-01, -6.28460884e-01,
          -1.45543993e-01, -9.33997035e-02, -1.46733403e-01,
          -4.74789917e-01, -6.08455658e-01, -1.04477644e-01,
          -1.51604235e-01, -4.83258009e-01, -6.06111944e-01 ]
      - [ -6.93661988e-01, -5.86395442e-01, -4.44996417e-01,
          -7.57418871e-02, -9.05275762e-01, -7.81001389e-01,
          -4.45644319e-01, -9.41693783e-04, -9.08073664e-01,
          -7.84598887e-01, -4.24999952e-01, 1.15259051e-01,
          -8.80428016e-01, -8.56855869e-01, -4.26562488e-01,
          7.99673796e-02, -8.74860883e-01, -8.69565368e-01,
          -8.71658325e-03, -4.76416051e-01, -8.66141319e-02,
          2.11377859e-01, -8.49862218e-01, -6.05122149e-01,
          -6.12717271e-02, 1.82831645e-01, -8.32879484e-01,
          -6.47293448e-01, -1.36985779e-02, 2.95246720e-01,
          -8.01389992e-01, -7.49570966e-01, -1.74129605e-02,
          1.26876116e-01, -7.78724015e-01, -7.80303597e-01 ]
      - [ -8.55840921e-01, -6.67105556e-01, -7.85663605e-01,
          -3.78609896e-02, -8.81214738e-01, -6.77515984e-01,
          -7.82577395e-01, 2.61719823e-01, -9.40972567e-01,
          -6.54246449e-01, -7.32812524e-01, -5.49674034e-04,
          -8.69364679e-01, -8.84090126e-01, -7.46874988e-01,
          -6.71240687e-02, -8.48493576e-01, -8.95410180e-01,
          -5.02254367e-01, -4.08276796e-01, -4.35320556e-01,
          1.21975541e-01, -6.63493633e-01, -2.99570203e-01,
          -4.49711025e-01, 3.48436832e-03, -5.99174440e-01,
          -4.03611243e-01, -3.00124526e-01, -6.15773439e-01,
          -4.48487341e-01, -8.12688947e-01, -3.05970132e-01,
          -7.34461069e-01, -4.32623148e-01, -8.29644561e-01 ]
      - [ -8.29328895e-01, -7.38075435e-01, -6.03974462e-01,
          1.28216267e-01, -9.82260287e-01, -8.50754619e-01,
          -7.32181430e-01, 5.24122119e-01, -9.97080445e-01,
          -7.42644310e-01, -5.46875000e-01, 5.87431431e-01,
          -9.83379126e-01, -8.96802008e-01, -5.53124964e-01,
          5.90665102e-01, -9.82738733e-01, -8.98758829e-01,
          -2.67207742e-01, -3.87852132e-01, -2.17097878e-01,
          -7.12411404e-02, -6.71926856e-01, -5.33830285e-01,
          -2.06936479e-01, 9.74239111e-01, -9.32268381e-01,
          -1.36469185e-01, -8.09464455e-02, 1.05788708e-02,
          -6.96785092e-01, -7.49440908e-01, -8.95522237e-02,
          -6.80893064e-02, -6.87578440e-01, -7.61850417e-01 ]
      - [ -8.07373643e-01, -5.97183466e-01, -6.69268966e-01,
          -2.12531686e-02, -8.86579692e-01, -6.94513083e-01,
          -6.76025927e-01, 3.55889440e-01, -9.39820528e-01,
          -6.16785884e-01, -6.18749976e-01, 6.48179054e-02,
          -8.69761825e-01, -8.60906482e-01, -6.18749976e-01,
          1.97558641e-01, -8.86895895e-01, -8.49477470e-01,
          -3.55575681e-01, -3.54800403e-01, -2.80089974e-01,
          4.43165302e-02, -6.66457772e-01, -4.02806580e-01,
          -2.46242762e-01, 3.04149270e-01, -7.54548907e-01,
          -3.62985075e-01, -1.88044786e-01, -2.39790976e-01,
          -5.72116256e-01, -7.43708670e-01, -1.99005008e-01,
          -2.05280364e-01, -5.84537625e-01, -7.27754951e-01 ]
      - [ -8.17937016e-01, -6.84297919e-01, -7.17530131e-01,
          4.39212322e-02, -9.30250943e-01, -7.36805856e-01,
          -7.17782557e-01, 1.45934105e-01, -9.44487810e-01,
          -7.61010587e-01, -6.90624952e-01, 3.40795517e-02,
          -8.94562781e-01, -9.00013328e-01, -6.92187488e-01,
          2.60642052e-01, -9.23472345e-01, -8.78175318e-01,
          -4.18094456e-01, -4.54382420e-01, -4.21822250e-01,
          1.94235325e-01, -7.56946743e-01, -4.00985777e-01,
          -3.36416245e-01, 1.09325767e-01, -7.49140382e-01,
          -5.49229860e-01, -2.67745912e-01, -1.92371309e-01,
          -6.66266799e-01, -8.08143973e-01, -2.98507512e-01,
          -1.26756191e-01, -6.83045208e-01, -7.88174212e-01 ]
      - [ -7.54971027e-01, -2.03649044e-01, -4.60610390e-01,
          1.77279949e-01, -7.01831102e-01, -1.77906156e-01,
          -4.84521210e-01, 2.86059976e-01, -7.27928758e-01,
          -2.12482333e-01, -4.49999988e-01, -1.71045601e-01,
          -5.42180955e-01, -5.83832085e-01, -4.49999988e-01,
          -2.68469334e-01, -5.07559419e-01, -6.16350532e-01,
          -2.10700393e-01, 8.53002071e-02, 2.58718729e-02,
          -4.90997434e-02, -2.51140893e-01, 2.26276398e-01,
          1.96532011e-02, -1.32375002e-01, -2.78390408e-01,
          -9.81855392e-03, 7.34744072e-02, -3.88358653e-01,
          -7.73746371e-02, -3.68542910e-01, 6.71641827e-02,
          -4.99451637e-01, -4.60711122e-02, -3.87982249e-01 ]
      - [ -9.35169816e-01, -6.27752423e-01, -8.41022015e-01,
          -1.96838498e-01, -8.28027725e-01, -7.07365394e-01,
          -8.67530584e-01, -9.83642340e-02, -8.55550230e-01,
          -7.23338664e-01, -8.40624928e-01, -1.89163029e-01,
          -7.84274220e-01, -8.75158787e-01, -8.49999964e-01,
          -1.80141389e-01, -7.75985241e-01, -8.80312860e-01,
          -8.24466527e-01, -5.12368917e-01, -6.35545552e-01,
          -1.79390848e-01, -6.15910888e-01, -6.10820889e-01,
          -6.73988461e-01, -1.17816091e-01, -6.58389688e-01,
          -6.56059146e-01, -6.73723578e-01, -2.28584766e-01,
          -5.67772627e-01, -7.86009908e-01, -6.81592107e-01,
          -3.06937337e-01, -5.57302237e-01, -7.99948096e-01 ]
      - [ -7.59113491e-01, -3.52827072e-01, -5.00354886e-01,
          3.51664424e-01, -8.49000812e-01, -3.32088411e-01,
          -4.94600415e-01, -1.75973952e-01, -7.35795259e-01,
          -5.98082423e-01, -4.90624905e-01, -2.38363385e-01,
          -6.56525195e-01, -7.36344934e-01, -5.10937452e-01,
          6.55645132e-02, -7.08696723e-01, -6.80279613e-01,
          -2.49173462e-01, -1.75903976e-01, -1.15860522e-01,
          4.16879773e-01, -6.95658445e-01, -1.17313862e-03,
          -6.58959150e-02, -3.25969934e-01, -4.74304438e-01,
          -5.15570939e-01, -5.35492301e-02, -2.56732106e-01,
          -4.20585155e-01, -6.11551166e-01, -8.45771432e-02,
          -1.15945816e-01, -4.61525023e-01, -5.66591263e-01 ]
      - [ -8.27257633e-01, -7.54390538e-01, -6.76366210e-01,
          2.38420129e-01, -9.88396525e-01, -8.06416273e-01,
          -6.97624207e-01, 3.38663340e-01, -9.90957916e-01,
          -8.15213025e-01, -5.76562405e-01, 6.03063226e-01,
          -9.85731244e-01, -8.97658229e-01, -5.79687476e-01,
          5.81084013e-01, -9.83920932e-01, -9.02965844e-01,
          -2.74421394e-01, -4.35075521e-01, -2.32845843e-01,
          3.81189942e-01, -8.42589736e-01, -4.06989813e-01,
          -2.39306450e-01, 3.76266837e-01, -8.34563673e-01,
          -4.72762227e-01, -1.08343780e-01, 3.52851272e-01,
          -8.05836082e-01, -7.30924010e-01, -9.45274234e-02,
          1.17181897e-01, -7.70069718e-01, -7.75298834e-01 ]
      - [ -8.38442445e-01, -7.54223824e-01, -7.53016353e-01,
          8.29123259e-02, -9.67368960e-01, -8.02565515e-01,
          -7.73938060e-01, 6.73617125e-02, -9.56115961e-01,
          -8.26356232e-01, -7.31249928e-01, 2.60109782e-01,
          -9.50571537e-01, -9.09356296e-01, -7.40625024e-01,
          2.41556287e-01, -9.44862962e-01, -9.13658261e-01,
          -4.04268146e-01, -5.08515120e-01, -3.76827896e-01,
          2.22146749e-01, -8.35581779e-01, -5.47209620e-01,
          -3.75722647e-01, 1.37400985e-01, -7.96615422e-01,
          -6.11382484e-01, -3.39975178e-01, 1.47119880e-01,
          -7.81957924e-01, -7.87554324e-01, -3.23383152e-01,
          4.47167158e-02, -7.67665744e-01, -8.03602040e-01 ]
      - [ -8.59154940e-01, -6.55951023e-01, -7.79985785e-01,
          4.84078646e-01, -9.77067888e-01, -5.01702547e-01,
          -8.05615544e-01, -4.00415123e-01, -8.18324208e-01,
          -8.60825241e-01, -7.67187476e-01, -1.00445628e-01,
          -8.53334546e-01, -9.00395036e-01, -7.81250000e-01,
          -8.98415446e-02, -8.46162200e-01, -9.02790189e-01,
          -5.33513784e-01, -3.93723130e-01, -3.85826766e-01,
          7.99245119e-01, -9.02916253e-01, -1.39294863e-02,
          -3.98844004e-01, -6.49153471e-01, -4.21193242e-01,
          -7.78396606e-01, -3.39975178e-01, -5.22619188e-01,
          -4.91479874e-01, -8.10190141e-01, -3.50746274e-01,
          -6.10322893e-01, -4.77391064e-01, -8.18933189e-01 ]
      - [ -8.63090277e-01, -8.91674101e-01, -8.32505345e-01,
          9.24586058e-02, -9.97723103e-01, -9.01267052e-01,
          -7.45140314e-01, 3.87024879e-02, -9.95651662e-01,
          -9.52926993e-01, -7.31249928e-01, 3.83995414e-01,
          -9.94391859e-01, -9.63588595e-01, -7.37499952e-01,
          4.04810190e-01, -9.94362772e-01, -9.63913620e-01,
          -5.26901126e-01, -7.24891365e-01, -4.57817793e-01,
          5.89796662e-01, -9.90465760e-01, -6.95539951e-01,
          -4.35838163e-01, 1.03472471e-01, -9.26866829e-01,
          -8.77206564e-01, -3.42465758e-01, 1.70367718e-01,
          -9.19075012e-01, -9.25572336e-01, -3.50746274e-01,
          1.50918007e-01, -9.20068800e-01, -9.26115334e-01 ]
      - [ -8.45898926e-01, -8.65587115e-01, -8.31085861e-01,
          6.87358379e-02, -9.93877828e-01, -8.90264392e-01,
          -7.76817858e-01, 7.27375746e-02, -9.91544127e-01,
          -9.23862755e-01, -7.12499976e-01, 3.80095601e-01,
          -9.90771353e-01, -9.55456376e-01, -7.20312476e-01,
          3.80679011e-01, -9.89831030e-01, -9.57591534e-01,
          -5.76795936e-01, -7.15632021e-01, -6.08548939e-01,
          3.83862257e-01, -9.62910056e-01, -7.07098126e-01,
          -6.30057812e-01, 2.27600336e-02, -8.57855737e-01,
          -8.17385077e-01, -5.79078555e-01, 1.58742428e-01,
          -8.91084909e-01, -9.02347505e-01, -5.97014904e-01,
          2.07115412e-02, -8.70870769e-01, -9.16943431e-01 ]
      - [ -8.07580769e-01, -6.92466378e-01, -6.45138383e-01,
          1.85107350e-01, -9.68359292e-01, -7.65267611e-01,
          -6.67386591e-01, 3.62672806e-01, -9.76899147e-01,
          -7.43993402e-01, -5.59374988e-01, 3.84565592e-01,
          -9.56041574e-01, -8.90029550e-01, -5.59374988e-01,
          4.51908231e-01, -9.60418224e-01, -8.86156023e-01,
          -3.40547085e-01, -4.35752153e-01, -2.93588281e-01,
          2.60136724e-01, -8.03539932e-01, -4.38950241e-01,
          -2.71676362e-01, 3.76491189e-01, -8.24868441e-01,
          -4.45844054e-01, -1.70610249e-01, -1.20023251e-01,
          -6.89640820e-01, -7.96295047e-01, -1.89054728e-01,
          -7.05472231e-02, -7.03304410e-01, -7.80720472e-01 ]
      - [ -6.84962749e-01, -3.42234254e-01, -4.15188074e-01,
          1.31199002e-01, -8.11065197e-01, -4.54454720e-01,
          -4.35565174e-01, 4.65944648e-01, -8.59367013e-01,
          -3.69812310e-01, -3.73437464e-01, -3.31705809e-02,
          -7.31674075e-01, -7.30084777e-01, -3.76562476e-01,
          1.18722916e-02, -7.35698938e-01, -7.31335402e-01,
          2.27532268e-01, 2.09450722e-02, 2.03599572e-01, 1.54644251e-02,
          -3.98188055e-01, 5.89671135e-02, 2.23121405e-01,
          2.38456130e-01, -4.90215957e-01, 8.54985714e-02,
          3.32503080e-01, -3.29651892e-01, -2.54697025e-01,
          -4.77581501e-01, 3.65671635e-01, -4.25230503e-01,
          -2.55366802e-01, -5.09159744e-01 ]
      - [ -6.78334713e-01, -2.86944270e-01, -3.74024153e-01,
          5.20415902e-01, -8.62362862e-01, -2.46171236e-01,
          -3.88048947e-01, -4.36919928e-02, -7.43605733e-01,
          -5.21828055e-01, -3.20312500e-01, -7.13944435e-04,
          -7.01571941e-01, -6.80955768e-01, -3.24999988e-01,
          -2.56810784e-02, -6.93234384e-01, -6.96856380e-01,
          6.52238131e-02, -6.35564327e-04, 1.40607476e-01,
          3.61774921e-01, -5.81136465e-01, 1.64258480e-01,
          2.18497038e-01, -3.23828518e-01, -3.64868462e-01,
          -3.37343812e-01, 2.55292654e-01, -7.70286322e-02,
          -3.46354485e-01, -4.31020379e-01, 2.78607130e-01,
          -3.07576358e-01, -3.06368053e-01, -5.00431180e-01 ]
      - [ -8.30985904e-01, -9.44986343e-01, -8.99219275e-01,
          -6.07139468e-02, -9.97569561e-01, -9.54975426e-01,
          -8.73290122e-01, -1.30460858e-02, -9.97088850e-01,
          -9.64733422e-01, -8.28125000e-01, 3.08642983e-01,
          -9.96563613e-01, -9.78892088e-01, -8.34375024e-01,
          3.41492414e-01, -9.96961415e-01, -9.78819549e-01,
          -7.18665481e-01, -8.74966860e-01, -8.38020265e-01,
          2.11275816e-01, -9.81658041e-01, -8.83416891e-01,
          -8.54335248e-01, 1.52193189e-01, -9.57754731e-01,
          -9.05621827e-01, -8.80448341e-01, 2.13571548e-01,
          -9.48831856e-01, -9.50919092e-01, -8.83084595e-01,
          1.72393918e-01, -9.46010053e-01, -9.53239739e-01 ]
      - [ -6.76470578e-01, -3.19556117e-01, -3.86799216e-01,
          2.56285071e-01, -8.32039118e-01, -4.01064932e-01,
          -4.12526965e-01, 2.06828833e-01, -8.00237119e-01,
          -4.42098677e-01, -3.85937452e-01, 5.23476601e-02,
          -7.02287912e-01, -6.60573840e-01, -3.74999940e-01,
          4.45728302e-02, -7.08271265e-01, -6.85892940e-01,
          2.09498048e-01, 1.60851479e-02, 2.10348725e-01,
          -2.67827511e-03, -4.15850163e-01, 3.21424007e-03,
          2.18497038e-01, -1.27751589e-01, -3.63508165e-01,
          -1.27289593e-01, 2.37857938e-01, 1.51417136e-01,
          -3.35481584e-01, -2.83869267e-01, 2.86069512e-01,
          -2.93249309e-01, -2.43249595e-01, -4.34287488e-01 ]
      - [ -8.35956931e-01, -7.39372969e-01, -7.70049691e-01,
          3.09358835e-02, -9.47967172e-01, -7.78950155e-01,
          -7.63858855e-01, 1.36997938e-01, -9.63043749e-01,
          -8.07436943e-01, -7.40625024e-01, 1.20166659e-01,
          -9.27211106e-01, -9.15304422e-01, -7.37499952e-01,
          3.13785076e-01, -9.49022293e-01, -8.99160981e-01,
          -4.85422373e-01, -5.10398030e-01, -5.00562429e-01,
          2.14428186e-01, -7.98141062e-01, -4.59925175e-01,
          -4.26589608e-01, 7.27100372e-02, -7.68093765e-01,
          -6.18717909e-01, -3.69862974e-01, -1.13488793e-01,
          -7.21695781e-01, -8.31115901e-01, -3.98009956e-01,
          -5.50290346e-02, -7.36459911e-01, -8.13664079e-01 ]
      - [ -6.52651191e-01, -2.15761364e-01, -3.74024153e-01,
          1.30602479e-01, -7.37701893e-01, -3.09946537e-01,
          -3.85169148e-01, 5.40162563e-01, -8.02021444e-01,
          -1.70293510e-01, -2.64062464e-01, -6.12336397e-02,
          -6.54574633e-01, -6.50368094e-01, -2.70312488e-01,
          -1.17170811e-01, -6.38616383e-01, -6.72930360e-01,
          2.51577973e-01, 1.64294124e-01, 3.02587152e-01,
          -9.91052985e-02, -2.95624495e-01, 9.03559923e-02,
          2.55491376e-01, 2.98721194e-01, -3.89505208e-01,
          3.67888331e-01, 4.29638743e-01, -3.03920031e-01,
          -1.18155062e-01, -3.31888258e-01, 4.32835698e-01,
          -5.09816647e-01, -7.48904943e-02, -3.91309917e-01 ]
      - [ -7.82725751e-01, -5.57876706e-01, -5.88360548e-01,
          2.21244454e-01, -9.22617674e-01, -6.16007328e-01,
          -6.02591753e-01, 3.13461542e-01, -9.30410981e-01,
          -6.38315439e-01, -5.06250024e-01, 3.68415713e-01,
          -9.07092452e-01, -8.14287961e-01, -5.09374976e-01,
          2.92291641e-01, -8.96015286e-01, -8.31734180e-01,
          -7.24377036e-02, -1.92839205e-01, -7.31158853e-02,
          1.78207994e-01, -6.16807818e-01, -1.46612823e-01,
          -6.82081580e-02, 1.04466558e-01, -5.93959093e-01,
          -2.68601835e-01, 3.73589993e-03, 1.63225532e-01,
          -5.63970685e-01, -5.35846651e-01, 6.21891022e-02,
          -2.23043799e-01, -4.91010308e-01, -6.38652444e-01 ]
      - [ -8.53355408e-01, -9.06804383e-01, -8.18310857e-01,
          5.62666655e-02, -9.98921931e-01, -9.29972887e-01,
          -8.25773954e-01, 1.04509592e-01, -9.98623729e-01,
          -9.40644503e-01, -7.68750012e-01, 4.62307453e-01,
          -9.98264849e-01, -9.61453617e-01, -7.73437500e-01,
          4.80274796e-01, -9.98216093e-01, -9.61802006e-01,
          -5.55154800e-01, -7.22270727e-01, -5.11811018e-01,
          3.91887546e-01, -9.64072526e-01, -7.23439693e-01,
          -4.82080996e-01, 4.20817375e-01, -9.70534980e-01,
          -7.89552212e-01, -4.29638922e-01, 4.39246058e-01,
          -9.49844778e-01, -8.92282069e-01, -4.45273697e-01,
          4.15096402e-01, -9.48832452e-01, -8.93578231e-01 ]
      - [ -8.12551796e-01, -4.00764823e-01, -5.85521698e-01,
          7.32194543e-01, -9.21403944e-01, -1.31685317e-01,
          -6.08351350e-01, -4.96439040e-01, -6.63378656e-01,
          -7.14773655e-01, -5.67187488e-01, -4.19487655e-01,
          -6.48058772e-01, -8.04696798e-01, -5.73437452e-01,
          -2.43001997e-01, -6.80448771e-01, -7.84852505e-01,
          -3.42350483e-01, -1.19268239e-01, -1.09111309e-01,
          7.87847400e-01, -7.45757699e-01, 4.23329115e-01,
          -1.00578129e-01, -8.14441621e-01, -1.66137159e-01,
          -6.03015721e-01, -3.36239338e-02, -7.87649035e-01,
          -1.68022752e-01, -6.65911436e-01, -2.98507214e-02,
          -7.54827917e-01, -2.05682278e-01, -6.56051874e-01 ]
      - [ -8.73239458e-01, -7.89673924e-01, -8.15472007e-01,
          2.26045966e-01, -9.89030123e-01, -7.71658242e-01,
          -7.75377929e-01, 2.83480883e-02, -9.73052740e-01,
          -8.87600243e-01, -7.34375000e-01, 3.40726137e-01,
          -9.72952962e-01, -9.25824642e-01, -7.45312452e-01,
          3.82893085e-01, -9.74063516e-01, -9.23149526e-01,
          -6.13465607e-01, -5.74123561e-01, -5.25309324e-01,
          6.48878455e-01, -9.50446188e-01, -3.76434922e-01,
          -5.60693622e-01, -3.41913104e-02, -7.72765756e-01,
          -7.27218032e-01, -5.16811967e-01, -7.88900852e-02,
          -7.48963356e-01, -8.50170016e-01, -5.24875641e-01,
          1.60201788e-02, -7.77983248e-01, -8.31035137e-01 ]
      - [ -8.34299922e-01, -8.56768727e-01, -7.45919108e-01,
          -7.24172592e-03, -9.87991333e-01, -9.14806724e-01,
          -8.04175615e-01, 2.06624985e-01, -9.96416748e-01,
          -8.88348758e-01, -7.03124940e-01, 3.94523740e-01,
          -9.89310682e-01, -9.49368536e-01, -7.06250012e-01,
          4.22184944e-01, -9.89644349e-01, -9.49309528e-01,
          -5.62969685e-01, -6.86352372e-01, -5.36557913e-01,
          2.74194837e-01, -9.29872096e-01, -7.14838088e-01,
          -5.44508696e-01, 5.21168232e-01, -9.64792311e-01,
          -6.76362753e-01, -4.64508116e-01, 2.21949339e-01,
          -9.04137671e-01, -8.96197140e-01, -4.65174139e-01,
          2.53716469e-01, -9.13423121e-01, -8.92044008e-01 ]
      - [ -8.36164057e-01, -6.19504869e-01, -7.18949556e-01,
          5.77812195e-02, -8.94320488e-01, -6.42233491e-01,
          -7.16342688e-01, -5.50228357e-03, -8.82835031e-01,
          -7.22335100e-01, -7.04687476e-01, 4.64308262e-03,
          -8.39701772e-01, -8.48827004e-01, -7.09374964e-01,
          -7.47060776e-03, -8.32510352e-01, -8.57616663e-01,
          -5.73189139e-01, -4.78351355e-01, -5.07311583e-01,
          2.74213791e-01, -7.99066722e-01, -3.85954738e-01,
          -4.98265982e-01, -1.68905258e-02, -6.93972468e-01,
          -5.83980203e-01, -4.54545498e-01, -1.87663972e-01,
          -6.36542857e-01, -7.95231044e-01, -4.65174139e-01,
          -2.68767476e-01, -6.22852206e-01, -8.04947495e-01 ]
      - [ -7.05882311e-01, -3.90389085e-01, -4.12349164e-01,
          5.21359921e-01, -9.16332185e-01, -4.00386512e-01,
          -4.34125304e-01, 5.95165610e-01, -9.21306968e-01,
          -4.46851254e-01, -2.37499952e-01, 4.45624113e-01,
          -8.76395702e-01, -7.46549129e-01, -2.40624964e-01,
          4.63142037e-01, -8.76773179e-01, -7.49015749e-01,
          2.50375748e-01, 3.64146233e-02, 2.95838118e-01, 3.08227420e-01,
          -5.24263144e-01, 2.04800844e-01, 2.43930459e-01,
          5.06321311e-01, -5.98905325e-01, 1.95061207e-01,
          3.99750948e-01, -2.39047647e-01, -2.94540584e-01,
          -4.63367105e-01, 4.07960176e-01, -2.98971534e-01,
          -2.94995010e-01, -4.79940653e-01 ]
      - [ -7.70298243e-01, -4.55148637e-01, -5.48616052e-01,
          7.60891557e-01, -9.50593829e-01, -2.53990173e-01,
          -5.80993533e-01, -6.33885026e-01, -6.67788625e-01,
          -7.92304277e-01, -5.07812500e-01, -5.22274852e-01,
          -6.88767910e-01, -8.64457726e-01, -5.07812500e-01,
          -3.52904558e-01, -7.17594385e-01, -8.50452900e-01,
          4.89929914e-02, -1.80145860e-01, 1.36107922e-01, 1.,
          -8.55680823e-01, 2.78789639e-01, 1.23699307e-01,
          -6.27484500e-01, -3.78966212e-01, -6.29807234e-01,
          3.15068483e-01, -8.30706358e-01, -3.52365613e-01,
          -7.74869204e-01, 3.08457732e-01, -7.37796903e-01,
          -3.87530208e-01, -7.49359131e-01 ]
      - [ -8.47348809e-01, -8.52534473e-01, -7.91341364e-01,
          -2.10610628e-02, -9.85255837e-01, -9.06983376e-01,
          -8.37293029e-01, 1.71784997e-01, -9.92631555e-01,
          -8.76120746e-01, -7.53124952e-01, 3.32006216e-01,
          -9.84007716e-01, -9.48666811e-01, -7.64062524e-01,
          3.50165367e-01, -9.83406663e-01, -9.48733628e-01,
          -5.28103471e-01, -6.44283414e-01, -5.36557913e-01,
          1.15599632e-01, -8.72439861e-01, -7.22387910e-01,
          -5.67630112e-01, 4.50348854e-01, -9.28263724e-01,
          -6.07990503e-01, -4.64508116e-01, 1.65458679e-01,
          -8.68346334e-01, -8.74751210e-01, -4.87562180e-01,
          1.53734684e-01, -8.68465066e-01, -8.72094512e-01 ]
      - [ -8.03024054e-01, -5.12236893e-01, -6.08232737e-01,
          -9.21230316e-02, -8.27953100e-01, -6.40939236e-01,
          -6.32829309e-01, 3.14905047e-01, -8.95947576e-01,
          -5.36851466e-01, -6.25000000e-01, -1.52689397e-01,
          -7.44410932e-01, -8.01008403e-01, -6.35937512e-01,
          1.41968369e-01, -7.97198057e-01, -7.56359339e-01,
          -4.31319535e-01, -3.14111292e-01, -2.86839068e-01,
          -6.67948127e-02, -5.86966395e-01, -3.92136753e-01,
          -2.76300609e-01, 2.19347477e-01, -6.89822197e-01,
          -3.19966197e-01, -2.35367477e-01, -2.58953750e-01,
          -4.82329726e-01, -6.79695129e-01, -2.31343329e-01,
          -2.67065346e-01, -4.94708955e-01, -6.79094195e-01 ]
      - [ -8.46313179e-01, -6.11543059e-01, -7.48757958e-01,
          4.04047966e-03, -8.65844131e-01, -6.18283272e-01,
          -7.55219579e-01, 2.11495519e-01, -9.05133367e-01,
          -6.06010914e-01, -6.93749964e-01, -4.80347276e-02,
          -8.35706115e-01, -8.61833215e-01, -7.04687476e-01,
          -1.29315853e-01, -8.10414553e-01, -8.76325965e-01,
          -4.61376667e-01, -3.44512582e-01, -3.63329589e-01,
          3.15290689e-02, -5.91321766e-01, -2.82089710e-01,
          -3.98844004e-01, -1.11011863e-02, -5.51382363e-01,
          -3.37624311e-01, -2.57783234e-01, -5.41617990e-01,
          -4.16281044e-01, -7.56932855e-01, -2.56218910e-01,
          -7.15910375e-01, -3.84332120e-01, -7.87177801e-01 ]
      - [ -7.37365365e-01, -3.07119310e-01, -4.87579882e-01,
          5.05073071e-02, -7.62514770e-01, -4.15397942e-01,
          -4.94600415e-01, 2.00177073e-01, -7.68680215e-01,
          -3.71369362e-01, -4.78124976e-01, -6.20713234e-02,
          -6.58875704e-01, -6.63025022e-01, -4.79687452e-01,
          -2.51158476e-02, -6.58059359e-01, -6.62279725e-01,
          -1.13315403e-01, 5.81705570e-03, 2.58718729e-02,
          -8.77427459e-02, -4.13543940e-01, -1.08038664e-01,
          3.58381271e-02, 1.69357061e-02, -3.98402870e-01,
          -2.15741396e-02, 8.09464455e-02, -1.32946670e-01,
          -2.83193350e-01, -4.07318294e-01, 6.46766424e-02,
          -1.02880478e-01, -3.03079844e-01, -3.96385789e-01 ]
      - [ -8.45484674e-01, -7.48677850e-01, -7.58694112e-01,
          1.70154572e-02, -9.56423283e-01, -8.11746895e-01,
          -7.68178523e-01, 3.27485919e-01, -9.85610664e-01,
          -7.74470448e-01, -7.10937500e-01, 3.54505301e-01,
          -9.60808635e-01, -9.00798619e-01, -7.18750000e-01,
          3.88076782e-01, -9.61691260e-01, -8.99600148e-01,
          -4.23504710e-01, -4.29966390e-01, -3.83576989e-01,
          1.71058774e-01, -7.63704300e-01, -4.45591390e-01,
          -3.64161789e-01, 4.26216722e-01, -8.28824401e-01,
          -3.90707791e-01, -2.77708590e-01, 6.64962530e-02,
          -7.28553653e-01, -7.63607323e-01, -2.93532312e-01,
          5.89330196e-02, -7.32503295e-01, -7.61965215e-01 ]
      - [ -8.44863296e-01, -8.93173456e-01, -8.18310857e-01,
          1.28722191e-03, -9.93791640e-01, -9.23950255e-01,
          -8.53131771e-01, 1.14861608e-01, -9.96885240e-01,
          -9.21433389e-01, -7.53124952e-01, 3.78622293e-01,
          -9.93784785e-01, -9.62047279e-01, -7.54687488e-01,
          4.08025265e-01, -9.94130552e-01, -9.62022960e-01,
          -5.99038243e-01, -7.39313424e-01, -6.26546621e-01,
          2.55997419e-01, -9.40284431e-01, -7.49170244e-01,
          -5.93063593e-01, 2.97754884e-01, -9.48891699e-01,
          -7.98963249e-01, -5.29265285e-01, 2.96023846e-01,
          -9.33942616e-01, -9.09964800e-01, -5.54726362e-01,
          2.74680257e-01, -9.31632280e-01, -9.07856941e-01 ]
      - [ -8.50869894e-01, -9.28742230e-01, -8.29666436e-01,
          -2.09209919e-02, -9.98062551e-01, -9.51582253e-01,
          -8.57451379e-01, 6.76307678e-02, -9.99055624e-01,
          -9.52202201e-01, -7.92187452e-01, 3.97836804e-01,
          -9.98148680e-01, -9.71232474e-01, -7.99999952e-01,
          4.16414976e-01, -9.98069644e-01, -9.71516371e-01,
          -5.77998281e-01, -7.70406485e-01, -5.74803114e-01,
          3.33827138e-01, -9.72895384e-01, -7.95446396e-01,
          -5.19075215e-01, 4.21167374e-01, -9.81006742e-01,
          -8.25573802e-01, -4.89414692e-01, 4.49644923e-01,
          -9.65004802e-01, -9.12595510e-01, -4.97512460e-01,
          4.17328358e-01, -9.63521540e-01, -9.15087938e-01 ]
      - [ -8.31193030e-01, -6.63668811e-01, -6.83463454e-01,
          -1.97485089e-02, -9.21774864e-01, -7.65070617e-01,
          -7.06263483e-01, 5.35022259e-01, -9.82506096e-01,
          -6.42710567e-01, -6.12499952e-01, 1.93123817e-01,
          -9.20064688e-01, -8.85975718e-01, -6.09375000e-01,
          2.87245989e-01, -9.29186940e-01, -8.79970968e-01,
          -3.06883097e-01, -3.57130766e-01, -2.50843644e-01,
          -4.93139029e-02, -6.12455130e-01, -4.13005054e-01,
          -2.92485595e-01, 4.67137456e-01, -7.53841460e-01,
          -1.62458241e-01, -6.60025477e-02, -5.49121022e-01,
          -5.12071669e-01, -8.08190167e-01, -7.46268630e-02,
          -4.05996561e-01, -5.60351789e-01, -7.78731644e-01 ]
      - [ -8.38028193e-01, -9.37899947e-01, -8.92122090e-01,
          -5.00240922e-02, -9.97351527e-01, -9.50736344e-01,
          -8.79049659e-01, 6.18267059e-03, -9.97052491e-01,
          -9.58295107e-01, -8.24999988e-01, 3.17779303e-01,
          -9.96141136e-01, -9.76422966e-01, -8.28125000e-01,
          3.48222017e-01, -9.96539652e-01, -9.76738930e-01,
          -7.06642628e-01, -8.56690049e-01, -8.06524158e-01,
          1.90534830e-01, -9.73213315e-01, -8.76532614e-01,
          -8.21965337e-01, 1.56822443e-01, -9.51495886e-01,
          -8.90472174e-01, -8.45579088e-01, 2.06099749e-01,
          -9.40237105e-01, -9.43483353e-01, -8.55721414e-01,
          1.50764108e-01, -9.33994710e-01, -9.46633399e-01 ]
      - [ -8.48798692e-01, -9.20819402e-01, -8.14052522e-01,
          6.12688065e-03, -9.98225808e-01, -9.44777131e-01,
          -8.27213824e-01, 7.38279819e-02, -9.98203397e-01,
          -9.47947919e-01, -7.92187452e-01, 4.44093943e-01,
          -9.98357058e-01, -9.63966846e-01, -7.92187452e-01,
          4.59004402e-01, -9.98285949e-01, -9.65148389e-01,
          -6.59152389e-01, -7.83264220e-01, -5.90551138e-01,
          4.53172565e-01, -9.90652025e-01, -7.82068133e-01,
          -5.90751469e-01, 5.11887550e-01, -9.90395367e-01,
          -7.98413038e-01, -5.26774645e-01, 6.33799076e-01,
          -9.82361555e-01, -8.93150985e-01, -5.39801002e-01,
          5.70868850e-01, -9.78595734e-01, -8.99831176e-01 ]
      - [ -8.12344670e-01, -6.23276949e-01, -6.76366210e-01,
          5.79364300e-02, -9.14289415e-01, -6.96827769e-01,
          -6.96184278e-01, -6.59972429e-03, -8.90530288e-01,
          -7.39631653e-01, -6.87500000e-01, 1.59928799e-01,
          -8.76694202e-01, -8.38419914e-01, -6.87500000e-01,
          7.69084692e-02, -8.57590795e-01, -8.55153143e-01,
          -3.21911693e-01, -3.80622506e-01, -2.57592857e-01,
          1.27493262e-01, -7.39088655e-01, -4.48966444e-01,
          -2.55491316e-01, 2.23946571e-03, -6.79459691e-01,
          -5.27963400e-01, -2.37858057e-01, 5.23062944e-02,
          -6.56772017e-01, -6.95704341e-01, -2.21393049e-01,
          1.54209137e-03, -6.55857325e-01, -7.06896245e-01 ]
      - [ -7.41300702e-01, -4.71545339e-01, -5.10290980e-01,
          2.46037364e-01, -9.04361486e-01, -5.64761400e-01,
          -5.03239751e-01, 8.10348868e-01, -9.70768332e-01,
          -4.57181215e-01, -3.31249952e-01, 4.78288293e-01,
          -9.07114506e-01, -7.83498943e-01, -3.34374964e-01,
          4.75711107e-01, -9.05469835e-01, -7.89068282e-01,
          3.27622890e-02, -2.95920968e-02, 7.98650980e-02,
          1.02387071e-01, -5.01838803e-01, -2.04041600e-02,
          4.27745581e-02, 5.03275871e-01, -5.89325070e-01,
          2.35809088e-01, 2.55292654e-01, -2.85241842e-01,
          -3.32565129e-01, -5.29138088e-01, 2.61193871e-01,
          -4.69572365e-01, -3.01974237e-01, -5.76180458e-01 ]
      - [ -8.68268430e-01, -5.62404394e-01, -7.10432947e-01,
          3.28123450e-01, -9.29140329e-01, -5.02927303e-01,
          -7.36501098e-01, -1.67231381e-01, -8.23516607e-01,
          -7.25993037e-01, -6.93749964e-01, -1.66895390e-01,
          -7.82308042e-01, -8.48718464e-01, -7.09374964e-01,
          4.65967655e-02, -8.17524016e-01, -8.21429193e-01,
          -5.58160543e-01, -3.59016299e-01, -4.01574790e-01,
          3.52458954e-01, -7.51965284e-01, -1.83091760e-01,
          -3.82658958e-01, -2.67749786e-01, -5.57201564e-01,
          -6.12923503e-01, -3.69862974e-01, -3.28550160e-01,
          -4.86818850e-01, -7.28732467e-01, -3.98009956e-01,
          -1.15901887e-01, -5.53398728e-01, -6.72037244e-01 ]
      - [ -7.00289965e-01, -3.81128192e-01, -4.84740913e-01,
          2.04484701e-01, -8.13257277e-01, -3.85065615e-01,
          -4.97480154e-01, -1.04255676e-02, -7.74511158e-01,
          -5.46214104e-01, -4.29687500e-01, -2.59466946e-01,
          -6.90486372e-01, -7.73780704e-01, -4.40625012e-01,
          -1.06951654e-01, -7.13097215e-01, -7.55420864e-01,
          5.01952171e-02, -1.36260211e-01, 1.46232843e-02,
          2.00866818e-01, -5.54887295e-01, 7.05957413e-03,
          5.66473007e-02, -1.55834496e-01, -4.59334970e-01,
          -3.17845762e-01, 1.73100829e-01, -4.71280992e-01,
          -3.50829005e-01, -6.39168739e-01, 1.39303446e-01,
          -3.62311304e-01, -3.79781306e-01, -5.99642277e-01 ]
      - [ -7.92046368e-01, -3.91964078e-01, -5.92618883e-01,
          2.07523584e-01, -8.13519537e-01, -3.56623828e-01,
          -6.22750163e-01, 2.60911942e-01, -8.22711587e-01,
          -4.08233762e-01, -5.10937452e-01, -2.81001329e-02,
          -7.53891706e-01, -7.57495999e-01, -5.17187476e-01,
          1.15897655e-02, -7.54281044e-01, -7.56648421e-01,
          -2.38954127e-01, -1.54812932e-02, -4.16197777e-02,
          9.29570198e-02, -3.93814445e-01, 1.75159693e-01,
          -6.35837913e-02, 2.65439749e-02, -4.15317655e-01,
          -4.21744585e-02, 3.73589993e-03, -3.99908006e-01,
          -1.91482604e-01, -4.82153594e-01, 1.74129009e-02,
          -4.64654922e-01, -1.88039899e-01, -4.94818270e-01 ]
      - [ -8.24772120e-01, -7.53844082e-01, -6.91980124e-01,
          1.98375344e-01, -9.85160768e-01, -8.10752571e-01,
          -7.03383684e-01, 3.11214685e-01, -9.88555193e-01,
          -8.15871119e-01, -5.98437428e-01, 4.86023426e-01,
          -9.78353024e-01, -9.07019615e-01, -6.00000024e-01,
          5.11620045e-01, -9.79154110e-01, -9.07771945e-01,
          -2.94259191e-01, -4.72614467e-01, -3.07086527e-01,
          2.90599942e-01, -8.38662326e-01, -4.88080323e-01,
          -3.10982645e-01, 2.89226770e-01, -8.25576842e-01,
          -5.31427741e-01, -1.70610249e-01, 5.67275286e-02,
          -7.59654403e-01, -7.96126068e-01, -1.89054728e-01,
          1.72721148e-02, -7.55791724e-01, -7.98595488e-01 ]
      - [ -8.53562534e-01, -8.78741741e-01, -8.16891432e-01,
          1.92321539e-02, -9.92283583e-01, -9.09892142e-01,
          -8.20014358e-01, 1.13199592e-01, -9.94853795e-01,
          -9.16770697e-01, -7.73437500e-01, 3.64831090e-01,
          -9.90125895e-01, -9.54494357e-01, -7.81250000e-01,
          3.74600172e-01, -9.89395499e-01, -9.55622733e-01,
          -5.37721753e-01, -6.92048073e-01, -5.09561300e-01,
          3.30488086e-01, -9.47243750e-01, -7.19516933e-01,
          -5.16763031e-01, 2.73071766e-01, -9.25087333e-01,
          -7.62366056e-01, -4.69489455e-01, 2.85278678e-01,
          -9.12011743e-01, -8.86160314e-01, -4.65174139e-01,
          2.09020257e-01, -9.03437614e-01, -8.93410742e-01 ]
      - [ -7.22659469e-01, -4.58988845e-01, -5.03193736e-01,
          2.67149329e-01, -8.75656903e-01, -4.75122452e-01,
          -5.32037377e-01, 4.09139395e-02, -8.31103802e-01,
          -6.10501885e-01, -4.42187488e-01, -1.01539135e-01,
          -7.77934670e-01, -8.07946801e-01, -4.45312440e-01,
          1.93192959e-02, -7.94122577e-01, -7.96764851e-01,
          5.50044775e-02, -1.81839466e-01, 2.36220360e-02,
          2.90088654e-01, -6.32256866e-01, -3.97186875e-02,
          2.42774487e-02, -3.96960378e-02, -5.45473933e-01,
          -3.36327612e-01, 1.50684953e-01, -3.75365138e-01,
          -4.34387088e-01, -6.66298032e-01, 1.21890545e-01,
          -2.70637751e-01, -4.62917387e-01, -6.31897807e-01 ]
      - [ -6.33388519e-01, -2.17221618e-01, -3.15826833e-01,
          4.35067058e-01, -8.06607246e-01, -1.91886842e-01,
          -3.53491664e-01, 4.02397990e-01, -7.94385850e-01,
          -2.80499458e-01, -2.14062452e-01, 2.85466909e-02,
          -6.90076411e-01, -6.53321862e-01, -2.20312476e-01,
          3.64339352e-02, -6.86058521e-01, -6.60192788e-01,
          3.46558452e-01, 1.68093443e-01, 3.76827836e-01, 2.32709527e-01,
          -3.96098435e-01, 3.64819050e-01, 3.36416125e-01,
          1.37848735e-01, -3.56855631e-01, 2.11552262e-01,
          4.74470735e-01, -3.36114705e-01, -1.05139494e-01,
          -3.36357415e-01, 4.92537379e-01, -4.11062777e-01,
          -1.10201061e-01, -3.65584791e-01 ]
      - [ -8.46934557e-01, -9.33791697e-01, -7.70049691e-01,
          -6.56546354e-02, -9.97292459e-01, -9.66226816e-01,
          -8.22894156e-01, 2.97689438e-02, -9.97721255e-01,
          -9.59163904e-01, -7.56249964e-01, 3.71992469e-01,
          -9.97892976e-01, -9.75661814e-01, -7.64062524e-01,
          3.95416617e-01, -9.97913539e-01, -9.75665808e-01,
          -6.24286175e-01, -8.17356706e-01, -5.68053961e-01,
          3.46383929e-01, -9.90105927e-01, -8.61357689e-01,
          -6.30057812e-01, 4.57384586e-01, -9.90809321e-01,
          -8.32578182e-01, -5.09340048e-01, 5.13140917e-01,
          -9.83386397e-01, -9.30432677e-01, -5.17412901e-01,
          5.02105236e-01, -9.83575702e-01, -9.30570602e-01 ]
      - [ -9.31234479e-01, -6.80231571e-01, -8.43860865e-01,
          -1.26530945e-01, -8.87141705e-01, -7.50874519e-01,
          -8.70410323e-01, -1.09228492e-02, -9.11791503e-01,
          -7.61410475e-01, -8.32812428e-01, -4.12372351e-02,
          -8.66269290e-01, -8.99389744e-01, -8.39062452e-01,
          -3.01750302e-02, -8.62251282e-01, -9.03726101e-01,
          -8.05831075e-01, -5.42468190e-01, -6.40044987e-01,
          -1.09142423e-01, -6.76267743e-01, -6.19194806e-01,
          -6.71676278e-01, -5.45288920e-02, -7.11261749e-01,
          -6.66720808e-01, -6.71232939e-01, -1.68992460e-01,
          -6.27807379e-01, -8.03987086e-01, -6.76616907e-01,
          -2.60654390e-01, -6.12411141e-01, -8.19054723e-01 ]
      - [ -8.04059625e-01, -3.49547446e-01, -5.94038308e-01,
          -2.44784355e-02, -7.20941424e-01, -3.91433001e-01,
          -6.05471492e-01, -2.89000869e-02, -7.00878382e-01,
          -4.25543964e-01, -5.73437452e-01, -2.43807137e-01,
          -6.03743732e-01, -6.93051338e-01, -5.74999928e-01,
          -4.02210534e-01, -5.52139044e-01, -7.34508872e-01,
          -2.28133559e-01, -1.28785431e-01, -7.53655434e-02,
          -1.43148839e-01, -4.08694327e-01, -1.76419556e-01,
          -1.30635917e-01, -1.86302662e-01, -3.56987536e-01,
          -2.11867154e-01, -4.35865521e-02, -4.43406940e-01,
          -2.53392696e-01, -5.62691808e-01, -1.99004412e-02,
          -6.22045338e-01, -2.40632117e-01, -6.19903803e-01 ]
      - [ -8.60397696e-01, -8.57411742e-01, -8.29666436e-01,
          1.90150023e-01, -9.98830378e-01, -8.59979272e-01,
          -7.42260635e-01, 1.32943869e-01, -9.95975733e-01,
          -9.24871504e-01, -7.15624988e-01, 5.24979830e-01,
          -9.96123672e-01, -9.42523181e-01, -7.20312476e-01,
          5.32653689e-01, -9.95721519e-01, -9.43475783e-01,
          -5.04057765e-01, -6.13440275e-01, -4.33070838e-01,
          7.14243889e-01, -9.78519738e-01, -4.92493629e-01,
          -4.49711025e-01, 5.95678091e-02, -8.48381519e-01,
          -7.68779576e-01, -3.84806991e-01, 2.31830120e-01,
          -8.69572997e-01, -8.53326976e-01, -3.80596995e-01,
          2.24253058e-01, -8.73914301e-01, -8.54672790e-01 ]
      - [ -7.90596485e-01, -4.96810198e-01, -6.06813312e-01,
          2.80491352e-01, -8.85387778e-01, -4.60778594e-01,
          -6.44348383e-01, -6.39632344e-02, -8.00176620e-01,
          -6.20095372e-01, -5.51562488e-01, -1.67622626e-01,
          -7.68414497e-01, -8.25458169e-01, -5.70312440e-01,
          -1.62385285e-01, -7.54885316e-01, -8.25329185e-01,
          -2.75022566e-01, -2.74815500e-01, -1.78852618e-01,
          2.15769410e-01, -6.54801607e-01, -1.72097981e-01,
          -1.90751433e-01, -2.42048502e-03, -5.84941626e-01,
          -3.72036278e-01, -3.86051536e-02, -4.88290787e-01,
          -4.41526890e-01, -7.32409000e-01, -4.47760820e-02,
          -4.81512129e-01, -4.50643361e-01, -7.21501529e-01 ]
      - [ -8.62261832e-01, -9.36925054e-01, -8.35344195e-01,
          -1.60476565e-02, -9.99198675e-01, -9.56652462e-01,
          -8.41612637e-01, 2.49183178e-02, -9.98000860e-01,
          -9.60460067e-01, -8.15625012e-01, 3.65052938e-01,
          -9.97568667e-01, -9.73513186e-01, -8.20312500e-01,
          3.87562871e-01, -9.97590065e-01, -9.73814487e-01,
          -5.34716010e-01, -7.77206540e-01, -4.37570274e-01,
          4.59870577e-01, -9.93054450e-01, -8.20672393e-01,
          -4.33526099e-01, 4.90381837e-01, -9.90205288e-01,
          -8.35242152e-01, -3.27521861e-01, 6.14205956e-01,
          -9.84039605e-01, -9.12897527e-01, -3.33333433e-01,
          5.90095401e-01, -9.83216465e-01, -9.14794087e-01 ]
      - [ -7.80861616e-01, -5.63979864e-01, -5.64229965e-01,
          2.07205296e-01, -9.35164928e-01, -6.66083097e-01,
          -6.18430495e-01, 3.84242654e-01, -9.29845333e-01,
          -5.82566738e-01, -4.74999964e-01, 2.89977074e-01,
          -9.07043755e-01, -8.40539813e-01, -4.84375000e-01,
          2.68672824e-01, -9.00822639e-01, -8.46629858e-01,
          -9.52810645e-02, -2.27634251e-01, -9.11136270e-02,
          1.16519213e-01, -6.16834223e-01, -2.23427653e-01,
          -8.67052078e-02, 3.39736462e-01, -6.68218136e-01,
          -1.44372761e-01, 6.35117292e-02, -2.09023893e-01,
          -5.20524740e-01, -6.71899021e-01, 8.45770836e-02,
          -3.22988987e-01, -5.09900749e-01, -6.97031140e-01 ]
      - [ -8.40513706e-01, -9.28808570e-01, -8.41022015e-01,
          -7.77587295e-02, -9.95080590e-01, -9.56620574e-01,
          -8.87688994e-01, 4.41063643e-02, -9.97125924e-01,
          -9.44773018e-01, -8.06249976e-01, 3.01244855e-01,
          -9.94428337e-01, -9.75238383e-01, -8.15625012e-01,
          3.24591041e-01, -9.94373381e-01, -9.75381136e-01,
          -6.42320514e-01, -8.14087749e-01, -6.91788554e-01,
          1.78220749e-01, -9.60694969e-01, -8.61548305e-01,
          -7.43352652e-01, 3.45715165e-01, -9.72047448e-01,
          -8.13875556e-01, -6.86176836e-01, 2.27519512e-01,
          -9.42032993e-01, -9.38241661e-01, -6.99005008e-01,
          2.03636527e-01, -9.41318572e-01, -9.38290238e-01 ]
      - [ -8.58740687e-01, -8.74399185e-01, -8.08374703e-01,
          2.15753317e-02, -9.91793692e-01, -9.08177853e-01,
          -7.98416078e-01, 5.07806540e-02, -9.89689887e-01,
          -9.23317552e-01, -7.60937452e-01, 2.79404640e-01,
          -9.85012054e-01, -9.60930407e-01, -7.68750012e-01,
          3.08315277e-01, -9.85127032e-01, -9.60596442e-01,
          -4.84821200e-01, -6.90557480e-01, -4.69066381e-01,
          3.56111050e-01, -9.48721945e-01, -7.07399249e-01,
          -4.58959579e-01, 2.40071416e-01, -9.16909277e-01,
          -7.70883918e-01, -3.54919076e-01, 1.38255000e-01,
          -8.89740229e-01, -9.03735399e-01, -3.50746274e-01,
          1.31340981e-01, -8.93966675e-01, -9.03912485e-01 ]
      - [ -7.94117630e-01, -6.86025262e-01, -6.21007800e-01,
          2.33493209e-01, -9.73714232e-01, -7.59484529e-01,
          -6.29949570e-01, 3.45839262e-01, -9.77685332e-01,
          -7.65468478e-01, -5.26562452e-01, 4.42269683e-01,
          -9.60222483e-01, -8.83459091e-01, -5.24999976e-01,
          4.72952127e-01, -9.61649001e-01, -8.84079576e-01,
          -1.30147398e-01, -3.84602785e-01, -1.47356570e-01,
          3.17153692e-01, -8.13767672e-01, -4.13266420e-01,
          -1.30635917e-01, 3.28190088e-01, -8.05154562e-01,
          -4.59044456e-01, -2.86426544e-02, 7.57889748e-02,
          -7.14502871e-01, -7.39985943e-01, -4.22885418e-02,
          2.92054415e-02, -7.07580447e-01, -7.42912292e-01 ]
      - [ -7.43993402e-01, -5.19587636e-01, -5.57132721e-01,
          -4.91515994e-02, -8.46460938e-01, -6.47724688e-01,
          -5.56515455e-01, 2.50120044e-01, -8.97326827e-01,
          -6.04645371e-01, -5.15625000e-01, -1.76173985e-01,
          -7.86339402e-01, -8.43889236e-01, -5.26562452e-01,
          1.45422220e-01, -8.35307777e-01, -8.01622748e-01,
          -2.22723246e-01, -3.12030077e-01, -2.37345338e-01,
          9.17793512e-02, -6.44076109e-01, -3.04458916e-01,
          -1.67630076e-01, 1.29123211e-01, -6.72288060e-01,
          -3.86964917e-01, -4.85678315e-02, -2.68593252e-01,
          -5.57006240e-01, -7.34630346e-01, -7.96020627e-02,
          -1.75823271e-01, -5.77856600e-01, -7.03346848e-01 ]
      - [ -8.45691800e-01, -6.71509027e-01, -7.57274628e-01,
          8.97141695e-02, -9.22445655e-01, -6.73779368e-01,
          -7.60979116e-01, -2.69969702e-02, -9.00772989e-01,
          -7.65697539e-01, -7.35937476e-01, 1.93339586e-02,
          -8.72965932e-01, -8.81893873e-01, -7.43749976e-01,
          2.64475346e-02, -8.68627429e-01, -8.86092126e-01,
          -5.96633613e-01, -5.13408661e-01, -5.36557913e-01,
          3.27003479e-01, -8.34367812e-01, -4.00036514e-01,
          -5.30635893e-01, 9.26911831e-03, -7.21702754e-01,
          -6.05075836e-01, -4.86924112e-01, -1.81994140e-01,
          -6.65370524e-01, -8.18993986e-01, -5.00000000e-01,
          -2.60317326e-01, -6.51729286e-01, -8.27195466e-01 ]
      - [ -8.16072941e-01, -5.96181870e-01, -6.76366210e-01,
          8.33086967e-02, -9.15270507e-01, -6.80722296e-01,
          -6.90424740e-01, 3.26978207e-01, -9.33477163e-01,
          -6.14439309e-01, -6.15625024e-01, 1.71168089e-01,
          -8.91389370e-01, -8.54161143e-01, -6.21875048e-01,
          2.08537817e-01, -8.93212259e-01, -8.54165316e-01,
          -3.54373336e-01, -2.76095271e-01, -2.37345338e-01,
          -2.24302411e-02, -6.11558199e-01, -3.80269110e-01,
          -2.85549164e-01, 3.15605044e-01, -6.74356341e-01,
          -1.70699954e-01, -1.75591469e-01, -2.69180298e-01,
          -5.03111184e-01, -6.97498560e-01, -1.96517467e-01,
          -2.22683966e-01, -5.23314476e-01, -6.81401134e-01 ]
      - [ -7.98260152e-01, -9.55748916e-01, -8.01277518e-01,
          -9.72855091e-02, -9.97832894e-01, -9.75059927e-01,
          -7.92656600e-01, -2.71161199e-02, -9.98350680e-01,
          -9.77762699e-01, -7.57812500e-01, 3.07662606e-01,
          -9.97968793e-01, -9.84564841e-01, -7.60937512e-01,
          3.32581401e-01, -9.98063982e-01, -9.84945118e-01,
          -6.51938677e-01, -8.75674129e-01, -7.00787365e-01,
          3.40336680e-01, -9.97489333e-01, -8.93247962e-01,
          -6.62427783e-01, 3.46487641e-01, -9.94139254e-01,
          -9.13838923e-01, -6.01494431e-01, 5.06152272e-01,
          -9.93505955e-01, -9.53666151e-01, -6.06965184e-01,
          4.55450654e-01, -9.91569519e-01, -9.56449986e-01 ]
      - [ -7.71748126e-01, -2.70126164e-01, -5.15968800e-01,
          1.58617020e-01, -7.25395918e-01, -2.33740926e-01,
          -5.40676773e-01, 2.66263604e-01, -7.56409645e-01,
